function [Y,Xf,Af] = myNeuralNetworkFunction(X,~,~)
% [Y] = myNeuralNetworkFunction(X,~,~) takes these arguments:
%
%   X = 1xTS cell, 1 inputs over TS timesteps
%   Each X{1,ts} = Qx376 matrix, input #1 at timestep ts.
%
% and returns:
%   Y = 1xTS cell of 1 outputs over TS timesteps.
%   Each Y{1,ts} = Qx1 matrix, output #1 at timestep ts.
%
% where Q is number of samples (or series) and TS is the number of timesteps.

%#ok<*RPMT0>

% ===== NEURAL NETWORK CONSTANTS =====

% Input 1
x1_step1.keep = [1 2 3 4 5 6 7 8 9 11 12 13 14 15 16 17 18 19 20 21 22 23 24 25 26 27 28 29 30 31 32 33 34 35 36 37 38 39 40 41 42 43 44 45 46 47 48 49 50 51 52 53 54 55 56 57 58 59 60 61 62 63 64 65 66 67 68 69 70 71 72 73 74 75 76 77 78 79 80 81 82 83 84 85 86 87 88 89 91 92 93 94 95 96 97 98 99 100 101 102 103 105 106 107 108 109 110 111 112 113 114 115 116 117 118 119 120 121 122 123 124 125 126 127 128 129 130 131 132 133 134 135 136 137 138 139 140 141 142 143 144 145 146 147 148 149 150 151 152 153 154 155 156 157 158 159 160 161 162 163 164 165 166 167 168 169 170 171 172 173 174 175 176 177 178 179 180 181 182 183 184 185 186 187 188 189 190 191 192 193 194 195 196 197 198 199 200 201 202 203 204 205 206 207 208 209 210 211 212 213 214 215 216 217 218 219 220 221 222 223 224 225 227 229 230 231 232 233 234 235 236 237 238 239 240 241 242 243 244 245 246 247 248 249 250 251 252 253 254 255 256 257 258 259 260 262 263 264 265 266 267 268 269 270 271 272 273 274 275 276 277 278 279 280 281 284 285 287 288 289 291 292 293 294 295 296 297 298 299 300 301 302 303 304 305 306 307 308 309 310 311 312 313 314 315 316 317 318 319 320 321 323 324 325 326 327 328 329 330 331 332 333 334 335 336 337 338 340 341 342 343 344 345 346 347 348 349 350 351 352 353 354 355 356 357 358 359 360 361 362 363 364 365 366 367 368 369 370 371 372 373 374 375 376];
x1_step2.xoffset = [1.884455496;1.888516461;1.890085527;1.972225988;1.996292719;1.892205946;1.967477772;1.971275849;0;0;0;0;0;0;0;0;0;0;0;0;0;0;0;0;0;0;0;0;0;0;0;0;0;0;0;0;0;0;0;0;0;0;0;0;0;0;0;0;0;0;0;0;0;0;0;0;0;0;0;0;0;0;0;0;0;0;0;0;0;0;0;0;0;0;0;0;0;0;0;0;0;0;0;0;0;0;0;0;0;0;0;0;0;0;0;0;0;0;0;0;0;0;0;0;0;0;0;0;0;0;0;0;0;0;0;0;0;0;0;0;0;0;0;0;0;0;0;0;0;0;0;0;0;0;0;0;0;0;0;0;0;0;0;0;0;0;0;0;0;0;0;0;0;0;0;0;0;0;0;0;0;0;0;0;0;0;0;0;0;0;0;0;0;0;0;0;0;0;0;0;0;0;0;0;0;0;0;0;0;0;0;0;0;0;0;0;0;0;0;0;0;0;0;0;0;0;0;0;0;0;0;0;0;0;0;0;0;0;0;0;0;0;0;0;0;0;0;0;0;0;0;0;0;0;0;0;0;0;0;0;0;0;0;0;0;0;0;0;0;0;0;0;0;0;0;0;0;0;0;0;0;0;0;0;0;0;0;0;0;0;0;0;0;0;0;0;0;0;0;0;0;0;0;0;0;0;0;0;0;0;0;0;0;0;0;0;0;0;0;0;0;0;0;0;0;0;0;0;0;0;0;0;0;0;0;0;0;0;0;0;0;0;0;0;0;0;0;0;0;0;0;0;0;0;0;0;0;0;0;0;0;0;0;0;0;0;0;0;0;0;0;0;0;0;0;0;0;0;0;0;0;0;0;0];
x1_step2.gain = [6.71425856230368;13.7220388073529;7.26853005344017;34.1318549052118;15.2739730735129;8.91126606812663;27.2841912217453;33.3719496849111;2;2;2;2;2;2;2;2;2;2;2;2;2;2;2;2;2;2;2;2;2;2;2;2;2;2;2;2;2;2;2;2;2;2;2;2;2;2;2;2;2;2;2;2;2;2;2;2;2;2;2;2;2;2;2;2;2;2;2;2;2;2;2;2;2;2;2;2;2;2;2;2;2;2;2;2;2;2;2;2;2;2;2;2;2;2;2;2;2;2;2;2;2;2;2;2;2;2;2;2;2;2;2;2;2;2;2;2;2;2;2;2;2;2;2;2;2;2;2;2;2;2;2;2;2;2;2;2;2;2;2;2;2;2;2;2;2;2;2;2;2;2;2;2;2;2;2;2;2;2;2;2;2;2;2;2;2;2;2;2;2;2;2;2;2;2;2;2;2;2;2;2;2;2;2;2;2;2;2;2;2;2;2;2;2;2;2;2;2;2;2;2;2;2;2;2;2;2;2;2;2;2;2;2;2;2;2;2;2;2;2;2;2;2;2;2;2;2;2;2;2;2;2;2;2;2;2;2;2;2;2;2;2;2;2;2;2;2;2;2;2;2;2;2;2;2;2;2;2;2;2;2;2;2;2;2;2;2;2;2;2;2;2;2;2;2;2;2;2;2;2;2;2;2;2;2;2;2;2;2;2;2;2;2;2;2;2;2;2;2;2;2;2;2;2;2;2;2;2;2;2;2;2;2;2;2;2;2;2;2;2;2;2;2;2;2;2;2;2;2;2;2;2;2;2;2;2;2;2;2;2;2;2;2;2;2;2;2;2;2;2;2;2;2;2;2;2;2;2;2;2;2;2;2;2;2];
x1_step2.ymin = -1;

% Layer 1
b1 = [4.2071820254763990781e-05;0.001986745931935520338;1.3670910644349030849e-05;4.3817928751698578566e-06;0.00029004360625096905092;8.0397194217711577611e-06;-1.4540634475247005792e-05;-0.0012749060575508700151;-0.0017648342687078316573;0.0029340382066628824774;4.4345296983666428778e-06;-1.4316094984933418075e-05;-1.5845443768751747986e-05;-4.0179158228268279361e-05;2.4710669805801499901e-05;2.238480480577721872e-05;3.9029860156544625611e-05;-0.0039020358383395330887;2.8324719480741716664e-05;-1.270111837424602261e-05;4.3319577423069248532e-05;-2.3547693016701161118e-05;2.1319668626898734672e-05;-0.00041424965106737481491;2.8248909274322127729e-05;0.0020969464328398964431;-1.6705208989499009187e-05;-2.1912523025372170857e-05;1.4699952864204738007e-05;-3.573668257531156453e-05];
IW1_1 = [-0.0060193591929753450728 -0.00082138730211997533319 0.00073701594730289524213 0.0012957025776610940106 -0.0038181379337180942554 -0.0091758196118379153905 3.4092572440536092547e-05 0.00011856425031050710206 -0.001921980271222128089 -0.003122220054602635117 -0.0033267616220056897038 0.0033541295226454277689 -0.00069427609226614152294 0.0017868013003603103791 -0.00084764823619171993617 -0.0016745528557165752313 -0.0016956862460124027918 0.0026791751126866406203 0.00028456557422018466342 -0.002732850755453972158 0.0009203481328266268453 0.00073693851078997880608 -0.0017364204224922189651 -0.0055119294395877200046 0.0012170761764965470735 0.00064975180453024348505 0.00057004753334063539439 0.0027002943874177656215 0.0030676198454283078176 0.0010266976810783792675 0.0008084298827082586408 0.0027002943874168362434 9.3784478057839037817e-05 0.0027002943874173267365 -0.0030649861505118516924 0.0010266976810781708838 -0.0014224679236960466929 0.0014410148760012951672 0.00029438104576601752116 0.00073980709414510738633 0.00010337105632832255047 0.0071092928917293480434 0.0096446226347383836458 -0.0028819601672065656844 -0.00051087291791907473142 0.0015134761014267436672 0.00040237710202635935258 0.0042052011524588740754 -0.00081372028020363338947 5.6901036138533730654e-05 -0.0010697788724325218036 0.00069764750009951477516 0.0021855075468531024591 0.00010528675883837029532 -0.0012551618526254831008 0.00062133097956798414348 8.0842683309202253354e-05 0.0013579083738380769326 -0.00035980624647179848671 0.0010080123028298228205 -0.0043881706575855843402 -0.00072461774930569647444 0.00044538983466066759493 0.00037863326965465517746 0.0039890316022670197632 -0.0016708750866262546148 0.001071371816023304049 0.00071294053562152392804 0.00031112156074766925042 -0.00049933043486935946732 0.0041850149568917046836 -0.0010697788724325181173 0.00034879610407608901404 -0.0013193968085351919471 0.0025977062464638254503 -0.00034353136605922546774 -0.0060000210847158397254 0.0036732687588264746788 -0.00055677299421941835612 0.00071294053562177383664 0.00036222975206384023074 -0.00058726936086791504954 0.00013756262988426359861 0.00072437303985150170837 -0.00038979860533136691117 0.00087355796366480828203 0.0011356492723591106019 0.00048793561157598402478 0.00087355796366480828203 -0.0020775329603910917299 -0.0024751634765659046369 -8.4798327955343082152e-05 0.0010995835555882307009 0.00084728754341379178272 -0.0046184229794520980511 0.0010006106991955520183 5.6901036139161714105e-05 -0.00075629578153092096113 -0.0019662158419838432141 -0.0015198728989487663571 1.6288120216478363996e-05 0.00073683612595380884244 -0.0017166608801272159601 -0.00079233800006975622834 -2.4684744751654968628e-05 0.00049348584241802509031 -0.00051087291791951654381 0.00024506462407828804055 -0.0018210262037196749216 -0.00028475434748078109213 -0.0012096455205848598031 0.0022967762792668643471 0.0022967762792668613113 0.00081372028020385174778 0.00072437303985155244903 -0.0014595925133176132493 -0.00091265010127288632904 0.00029292528591197468336 0.0010778670859200299194 -0.0030949615956676504273 0.0012382052658140535288 0.0019693110316339980034 -0.0012382052658140511436 0.0039544874198140147342 -0.0087675536422795238151 0.0045892296089989764729 -0.0005108729179192054862 -0.00053840772383642577191 0.0010697788724325244056 -0.0011561889962327846857 0.0026341601932271681806 0.00069794793606982774743 0.0021208531061488716113 0.00053901544015510561604 0.0018433890632328438393 0.00038488866730359725873 -0.0033323393394410817138 -0.0015964122478538621784 0.0026341601932270220301 -0.00051087291791919171684 0.0019199021450908594893 0.0016329133158291086851 0.0031276156838691403922 -0.00016819825612179921609 -0.00040486642225958345553 0.00090728577755925599382 -0.001357540201118554498 -0.0020052133789604056381 0.0020052133789604052044 -0.0018433890632327005078 -0.0012569241535042676491 0.0020444266655788084427 0.0018125552665564101731 0.0001061984662774582153 0.0026839019144079441503 0.0055980608601656749873 0.00029894331394419347775 0.00026805373918715850751 0.000269954322461225674 0.0048348820247007774295 -0.00051595323587674769752 -1.0248482518326364877e-05 -0.0048914450454472834309 -0.00035980624647179073466 -0.00062791257698750931309 0.0025995182704710920185 0.0023221582772429750531 -0.00092346336167603375843 0.00099452148445631658943 0.0030410170827794603954 -0.00064957699683458939004 0.0015572136660236208031 -0.0012135145804314808292 0.0030216562394689626229 0.0012168795263529572342 -0.00043882810971479090274 -0.00062064720511438142142 -0.0023833738490042209214 0.0034110809011836311193 0.00054638164102981730697 0.0008585119870228938169 0.0008246410561627480441 0.00053325266570694281401 0.0023833738490043384489 -0.000450796407333697803 0.0014361177381841427111 0.0011399147493266067414 0.00015252988190247410583 0.00049348584241814131678 -0.00010215543850308690969 0.00097661540506355682019 0.0041972145589388807491 -0.00023850570946475915194 -0.0012711503528774939064 0.0012711503528779772437 0.00057897098027117341931 -0.0019049742854505523348 0.0040282615607587423864 -0.0025923195831180560582 0.0024327632647311923757 0.0031654743050926756678 -0.00010525711844682553435 0.00037863326965495772407 5.6901036139171485477e-05 -0.00064830088910395797502 -0.00035980624647178666891 -0.0013110881002860663106 0.00089846592009379714315 -7.2591102102541289276e-05 0.0031483565089948060967 0.0019310014669500980607 -0.00051087291791920071572 0.0082605052592702645636 -0.0038145761632425484629 0.0066405818336397939156 -0.00016819825612183746132 0.00029292528591193012265 0.00032364461600707130056 0.0012531607016955047772 0.00079847016863746100076 5.8170502879974526423e-05 0.00064975180453081843746 -0.0027833202101539512505 -0.0017616024972164107554 0.00093390661091738067477 -0.001192821618988948798 5.6901036139171939487e-05 0.00065084998719359477611 0.0027032664774092169356 0.00087355796366480860729 0.00072437303985155212377 0.00071294053562176711459 -0.00038979860533135449706 0.00033770017706106792441 0.0041972145589383958939 8.0842683309067243078e-05 -0.001161903176472960748 -0.0011570809835324442905 0.00077147779721991238591 -0.0017886981262694979199 8.0842683308967645556e-05 0.00079847016863720046698 -0.00021350427471315380334 -3.9147620579340577137e-05 0.00085468857240566294825 0.00041728504664044225453 0.00067384987475134776498 -0.0013050024108535011619 0.00060341263720134811176 -0.00043882810971483828238 -0.00064975180453077257571 -0.00017942322801164405023 0.00029876501167866540299 -0.00043882810971479258326 -0.00021889661616801954708 0.00062949828086371285765 0.0002939237583916084356 -0.00018747469360576817215 -0.0013784384094462085509 -0.0031276115942728672202 -0.0012739856525712119593 -0.0059182577915642617383 -6.6890562890883824916e-05 -0.00044147727853153389838 0.0005478087776823721642 0.00064975180453077300939 -0.00067888321826818610275 0.00062959784214568117588 2.2042771755306494877e-05 0.0013355244455746869987 -1.1722559744480953655e-05 -0.0014881162097610076567 0.0013520077408185617821 -0.00023889996858870237123 0.00042429917829265277477 0.00065550201691521551173 0.0024702554551176802815 0.00072140631257188087867 0.0016016702905094013908 0.0016016702905093630101 0.00087699566138225591629 0.00087699566138238341847 0.0013627891722087007425 -0.0023015972946241729929 0.00010337105632748890742 -0.0034818905590006891254 0.0020644656700800276261 0.00018033939177361239434 9.8262075257018785643e-05 0.0012321795980377223383 -0.00026164345716109179427 -0.0012180491589634718543 0.0031623336663940582354 -0.00048379675924134182179 -0.0030054323798536504257 0.0020751202142257857246 0.00068270222586543918234 -0.00052835732552874753627 0.0005915996036328620639 -0.00010570701314767475812 0.0011782015784986082062 0.00072437303985155234061 0.0015544680998834149461 0.0025240774866878085483 0.0021987994246872597306 -0.0012551618526253506113 -0.0011565626981227677961 -0.00016819825612183984657 0.0055753710273425977767 0.00015679190961264555118 -0.0026316428140383324105 0.00076197444343385311964 -0.0015223184267924103757 -0.0015087806172359363374 -0.0023311760183657042646 -0.00094567302267537704883 0.0054370841738754132136 0.00059318713006292463422 0.001784142357575352637 -0.002725620511487090742 -6.4412068031275483996e-05 -0.00056035365251919588229 -0.00078171219765009057525 -0.00014650272146295956568 -0.0007247708436594954692 -0.0030192039023945898592 -0.0017373639163084297551 -0.00042193586431719270514 -0.001705048718046528293 -0.0041583045941162560116 -0.004223870686463601469 -0.00061676547850658463776 0.00022184629296633997944 0.002770979270229765451 3.6008242241254580479e-05 0.0049143476800825799944 0.00012702620514048156009 0.0050046589900786314295 -0.00036166529255474231391 -0.0013575402011185015889 0.0027864359197778856662 -0.0024227260087174113876 -0.0019024666705596562054 0.00065084998719359596873 0.00065084998719359596873 -5.5164203412681191933e-05 -0.0021480886395448565637 0.0016520520084831243502 0.00047123526682477426784 0.00069371243415411194128 0.00095668841890471237668 -0.00026192411320425973593 -0.0013567695555245990521 -0.0017591147576391746952 0.0038350929220429042822 -0.0013280160732152305417 -0.0016700114167328501593 0.00067642027426384704423 -0.00028905517654843464756 0.00088668100052287639624 -0.00084764823619339958218 0.00067440547150427517659 0.000781421970763077154 8.0842683308967591346e-05;-0.067593954357757404794 -0.049146496430524419519 -0.0067525787528593455775 0.052705491617110127034 -0.039041216776186937754 -0.051504580214620926393 0.040334820660522338609 0.042568039887254202625 -0.024146397310702703148 0.0024033105911360629244 0.10078292810466203677 0.035249478964833665107 -0.00096030131513846501284 -0.01959461391032968694 0.0363288214923249142 -0.0040784217072910621329 0.0062060035092185742919 0.014323756595533476688 0.0003945243318078600972 0.018798984507065203547 -0.030255192309472447865 -0.008070528982957589012 0.015875452928861978619 -0.034550063338708157656 -0.022263231392405258974 0.036893867283028111692 0.010793951275514666183 0.016786351247362000377 -0.0029690212980062447544 0.0060357421922126930011 -0.010457162981266652016 0.016786351247362028133 0.0066876238905936727722 0.016786351247362017725 -0.054039911065157805736 0.0060357421922125351413 -0.016261699543741452156 -0.017047373301012861552 0.0005236375014680417616 -0.043767625778203311793 -0.0075431641499967621786 0.019239619468781492262 -0.0062564207249026521779 -0.042072867341015812714 -0.0046901326825180720756 0.033059692475020781288 0.023983438537864772838 0.076093403561715053374 0.0043524098531847283874 -0.0053506998895376479616 0.020521019181440593171 -0.001684207729276213485 -0.0080103408145790495204 -0.013067053158677722352 -0.0095755143555802130911 -0.0027906865488184109773 -0.0011627059062761947034 -0.0054240390468463508741 0.00073666510341630325309 -0.013660978483385250934 0.020041422339208744136 0.0025103243696598855766 0.0021573110349157012706 0.0014111760609279721829 0.0040155102046424704168 -0.014341069823752031556 0.091487671349386234798 0.036228455962677957869 -0.0010311953406787960959 -0.0042801735955457047289 -0.017900848915602524808 0.020521019181440641743 -0.039587888285196153049 -0.011452301469610669596 0.0067561465028379971351 0.001941128385385082868 0.039304684735224346137 -0.045142003120338718147 0.00033592280621734998741 0.03622845596267763868 -0.068493454834315431468 -0.038081147474630476502 -0.00051008026965547719617 -0.0099431867847059821758 -0.0056131364126545766485 -0.0090630924539459797873 0.010792899741579946651 0.0085915110370649184351 -0.0090630924539459901956 -0.024059674928998207866 -0.031305491086062210704 0.008087130626431345698 -0.032406188500109338324 -0.0091191467590456681824 -0.10586993711619868686 -0.029042234542507972678 -0.005350699889537253312 -0.014893608895867252798 0.04172098611614592778 -0.0059894432251056109115 -0.0028170612768396146447 -0.021060804113188662245 0.084437828144436719024 -0.0092963037279525512213 0.0012406109579485053059 0.0014627757926327909256 -0.0046901326825188075983 -0.060750591464765739402 -0.035918722544700409927 -0.0045582171867629764361 -0.048905847813899894216 0.043957211211700812636 0.043957211211700902842 -0.0043524098531848021132 -0.0099431867847059787063 -0.0040768227577492851046 -0.012213693059576482061 0.0052605726830615238271 0.0023249980713536625571 0.01199506822569110405 0.018734766759774153233 0.036975053004093288989 -0.018734766759774163641 0.057976202485556335708 -0.0057842887770801001968 0.033054047157867708084 -0.0046901326825187963226 -0.060747146007439675741 -0.020521019181440634804 -0.012939468313180867501 -0.014556596775880534939 -0.0033391310144366289324 -0.015404752745820723611 0.0014586197482728811316 -0.029654991456259389981 0.041591352982329479748 -0.024965730305305657705 -0.018061039319307282958 -0.014556596775880666778 -0.0046901326825188084657 -0.032777349488151100165 -0.036566863849846441281 0.069352185898710089207 0.047365929545689543223 -0.0031700006710281272357 0.023046344136157578125 -0.04394770063930295706 0.0017367900534184105288 -0.0017367900534189463415 0.029654991456259487126 0.031565406485812540216 0.0040503795715456430634 -0.0042481289789666016807 0.0053759127263654062426 -0.040166673874876310246 -0.072218545472300124666 0.0017710203149671429647 -0.0047290595905990226791 0.0035741823138941909883 -0.10180204304120693548 0.0025572981391980931058 -0.009867394974094105542 0.080583339667766804015 0.00073666510341481583612 -0.046994363677127809487 -0.022754652477232080454 0.030230701722776358309 0.033954834642446203585 -0.019712908056625507575 0.040716128291435942088 -0.01982949154926625171 -0.087129375904399355979 0.02852808746605407092 0.0066024073391505750524 0.0065244680927718373686 -0.0046671679683300904343 0.00328576725048790666 0.0029040050198919685823 -0.025411770133267921196 -0.020145846455189644897 0.0065633004066514644484 0.070583284375875326999 -0.0012293962480243933455 -0.002904005019891358827 -0.025278124965383626244 -0.0085000911257413162142 -0.0020229169695599518927 -0.0054940732994009722559 0.0014627757926327959129 -0.0077859099316871264659 0.058870423695577919765 -0.0003114621059467541711 0.013258742596901821817 -0.010858465480108523554 0.010858465480108537432 -0.015396760738676570218 -0.016583725254980169472 -0.0026630042034177224021 -0.026318115387805877253 0.024856326627085530839 -0.029934897970188979743 -0.012539270092933804679 0.0014111760609279700145 -0.0053506998895372238217 0.018221206089636784314 0.0007366651034148022836 -0.032016115781769036164 -0.08516750584861351725 -0.039522622366157528218 0.0094777221743399270998 -0.015553245135291583756 -0.0046901326825188093331 -0.0091349155402964659495 0.039937006594493923428 -0.089440756786684352808 0.047365929545689536284 0.0052605726830615411743 -0.022490391564182456163 0.034988501593072422746 -0.0012805110264868444208 -0.05773929836609546784 0.036893867283027924342 -0.014602662969363659415 -0.018359594033521792894 -0.012071142655137043556 -0.025928684674634758234 -0.005350699889537222087 0.021298995017670938751 -0.024525776052301648256 -0.0090630924539459763178 -0.0099431867847059700327 0.036228455962677687252 -0.0056131364126545792506 0.012605730950493877068 -0.00031146210594682431898 -0.0011627059062755001635 -0.031136021451008799588 -0.012649072456628079886 0.012603454910076495113 -0.021510701219696785197 -0.0011627059062754999466 -0.0012805110264867494447 0.0021850169355136107169 -0.049413006949359773723 -0.00038534713723673913932 -0.001339206002963627077 -0.00054629796643241581525 -0.0029844168700864240687 0.045396175828199068769 -0.0046671679683300886995 -0.036893867283027931281 -0.00063197268710645068852 -0.029853676974492440732 -0.0046671679683300886995 0.01943276747501062468 0.001929869695443155609 0.00071851337991932250678 0.00035509260103760905422 0.0057592976766194662122 -0.045058285380934356978 0.011133931767975070379 0.12663067299835684132 0.023351406457972369995 0.00074036125857571003298 0.0025701535422548629078 0.036893867283027931281 -0.0086253971196405283123 0.00075022195378844733649 -0.0014490165875566769424 0.035092986914252395636 0.015983062447894907931 -0.044093674851331081388 0.013958106900739244982 0.019420583688357265228 0.0031055714883263252357 -0.040879710401281188492 0.0054009684564795277031 -0.044015009202255414578 0.0042931658423187727194 0.0042931658423187718521 -5.8406629291382427356e-05 -5.8406629291380089545e-05 -0.078300800151239607905 0.12294705854853847649 -0.0075431641499965505424 -0.0071861388657343296116 0.0064143387828278324025 0.0049559324656062763229 0.0028080663214642724232 -0.0032627119950626969069 -0.011676470436845810819 0.013158360523139015635 0.049341019998675829383 -0.0058638307413340223784 0.031483564776058632628 0.034628247183790449026 -0.084810252519984641317 -0.02415566451869937889 -0.0089059482151274370343 -0.0053253891775290902039 0.0050174578175520914702 -0.0099431867847059700327 -0.030079471790611402721 0.038424831452610427873 0.038878847212893204166 -0.0095755143555800517619 0.020535714356519269019 0.047365929545689536284 -0.038452750823285954118 0.027541823154686763397 0.0063408724488955266543 -0.014320980398905546263 0.0015180629113012746034 -0.00043544008363038001069 0.031498065051349700971 -0.010339286818660708284 -0.092616297652641649263 -0.0023776176193279464043 -0.0032073665334709723813 -0.029038266593386714842 0.003571442157422570398 -0.026772677580323454155 0.0067466540598913509255 -0.053423123676811290483 0.011883455012788788491 -0.015023000049773117814 -0.013367088707409177303 0.0035876172652790946742 -0.007512732228307203268 -0.068892399740420939835 0.022589555317291492437 -0.037771580220366515745 0.0010036879262510960738 0.049923815857837790244 0.04851829850548323303 0.017792131713716397706 -0.0005874978195292115046 0.0793120408815596728 -0.021963490379894156507 -0.043947700639303130532 0.0051699280154503327034 -0.005747853990126262913 -0.025204569242736757362 0.02129899501767094569 0.02129899501767094569 0.014674034095870678446 -0.014638735739602332445 -0.018108139496400863649 -0.0011385899619966459353 0.0012879512981678253522 -0.011643541901137590203 -0.011404008143988621574 0.023580659238953263768 -0.1086473428117410156 0.016633928824596282831 -0.036999722993948401528 0.0710138784131661982 0.01765235804002062564 -0.028027569272916851018 0.019715608778267463413 0.036328821492325018283 0.0018159701254982622571 0.001546338496239254949 -0.0011627059062754962603;-0.0055336875151626094271 -0.00077736505038137628486 0.00068356377716046476736 0.0011772084983008896004 -0.0034923539095141559532 -0.008456904760810311783 5.0367652265163207696e-05 0.0001234601089183075468 -0.0017450089827207035734 -0.0028412619835262763537 -0.0030332575225822271982 0.0030951854595111798381 -0.0006141146828011023566 0.0016738299234534245643 -0.00075753788220601567249 -0.0015189202874971170342 -0.0015471603201002845016 0.0024745320644617933153 0.00028757708312373333462 -0.0025061491491054129627 0.00087054968897509168915 0.00071022213951350745414 -0.0015720188496384489025 -0.0050735367161342075082 0.0011482600471716345597 0.00061973641592383190563 0.00055107193248675077554 0.0024524027512933584821 0.0028541605126134648139 0.00097093221493675457238 0.00077299768836926478679 0.0024524027512933142467 0.00011072921144103899712 0.0024524027512933367981 -0.0028094423922365736185 0.00097093221493675348818 -0.0012862158417158951751 0.0013535459012510517047 0.00029641051189216135239 0.00071167496107710107121 0.00011933938438913891723 0.0065398605811448256089 0.0088856543011967374646 -0.0026409798216368439612 -0.0004481170322694518599 0.0014051331130645295601 0.00036943292249040019914 0.0038471800349889830224 -0.00073164091628600646904 7.7707293256156493352e-05 -0.00096422079675601425446 0.00066434383720431397762 0.0020256849642230202561 0.00012150169056144271955 -0.0012187136805213074492 0.0005975392714315761215 9.9556290384706481273e-05 0.0012325112110505782089 -0.00030650513688873639662 0.00095036444977613092778 -0.0040330780246221062738 -0.00064528981444742807266 0.00043140756821424082121 0.0003735761020347937297 0.0036870698900522773898 -0.0015155861925205242353 0.00095968144661052372582 0.00068472903349187531213 0.00029400354183308646545 -0.00048553730847241825981 0.0038754818036721796516 -0.00096422079675600373769 0.00034687804222662097127 -0.0011906917425677716101 0.0024176647525821696842 -0.00033905792033528392437 -0.0055182485950656849985 0.0034013876278172669974 -0.00049023180412412876387 0.00068472903349191174133 0.00034249565311944264951 -0.00051452175029441328449 0.00015180445118237389048 0.00069213336418402586752 -0.00033402472808867137008 0.00082961638821851097468 0.001071475604745683553 0.00047436840465074338281 0.00082961638821851119152 -0.0018889502980142594546 -0.0022732140129158914105 -5.3263676632992123323e-05 0.0009926558271607412165 0.00080536056521308550978 -0.0042340627203838734557 0.00090127762326016236296 7.7707293256179613963e-05 -0.00067787744890855118878 -0.0017828563872790488716 -0.0013783460947566375607 4.1855466212446277934e-05 0.00070261869694676604668 -0.0015450798392332135058 -0.00070568339687566224334 -4.4160555535074591071e-05 0.00047860667716003048701 -0.00044811703226943418741 0.00023480225016211128761 -0.0016482443803190224667 -0.00022267605075527210348 -0.0010822319942541164424 0.0020833981373604322507 0.002083398137360433118 0.00073164091628602728572 0.00069213336418402662646 -0.0013189356737979827158 -0.000816358388588980864 0.00029499707822397235176 0.0010156569937529317041 -0.0028869301559357653936 0.001119110585754229609 0.0018250476844033438912 -0.0011191105857542291754 0.0036659907821641806933 -0.0080546412301875491141 0.0042227706130197259493 -0.00044811703226943375373 -0.00047224103915083343432 0.00096422079675600764082 -0.0011273354766207720722 0.0024440011808343981362 0.00062623058539193899707 0.0019703407079159208741 0.00051957071401981258247 0.001694900529060455437 0.00038275915687407502212 -0.0030458866227641187389 -0.0014481775563436199723 0.0024440011808344059424 -0.00044811703226943397057 0.0017865040527001779455 0.0015021082151280889996 0.0029177104889554017833 -0.0001139472896094744891 -0.00034697723013745054117 0.00085656631893667590887 -0.001222734880789961209 -0.0018627599179311630107 0.0018627599179311669138 -0.0016949005290604753863 -0.0011349071566027363073 0.0019086278854570648544 0.0016721034973060490761 0.00011994827290384935071 0.0024893952979250615065 0.0051467020188637547032 0.00030000628314569852476 0.00026926913205508180805 0.00027418692504176561979 0.0044901541639935831432 -0.00045084960548181596349 1.3404128510602583046e-05 -0.0045360445415679375575 -0.00030650513688877645789 -0.00056027228524924653757 0.0024255547780134526122 0.0021664718607829944706 -0.00082750115845503632774 0.00095425755214235724773 0.0027934831557539616283 -0.00057286553838083132881 0.0014438027768686196705 -0.0011079006394463120772 0.0027977945599471460911 0.0011453795307710134838 -0.0003791957704870968439 -0.00054826329279319019772 -0.0022036879668194606086 0.0031542378529311400522 0.00048570325918597360851 0.00081592385533929762727 0.00075359098210381846288 0.00051733116159234280272 0.0022036879668194623433 -0.00038834272117324575811 0.0013422410123585339949 0.0010755213778530536058 0.00016309314980649664006 0.00047860667716002956544 -6.9021898186563308028e-05 0.0009134320415624011362 0.0038520695533743264626 -0.00019642888959352781302 -0.0011459694986465137744 0.0011459694986465133407 0.0005482011891453572594 -0.0017334632090103393922 0.0037293473575756427504 -0.0024059851267275011305 0.0022663670730664877903 0.0029297306075975857072 -7.142616301209190634e-05 0.00037357610203479221182 7.7707293256181863682e-05 -0.00058181573007172926633 -0.00030650513688877624105 -0.0011831460231858000054 0.0008329666356518120908 -3.6274869188575997866e-05 0.0028996030448380939043 0.0017939708120659045212 -0.00044811703226943375373 0.0076080459030777080123 -0.0035138591056451287491 0.0061237880655488491355 -0.00011394728960945809055 0.00029499707822397479122 0.00030086294358377388067 0.0011517894618626629832 0.00076056238309198174845 7.3838305321770246969e-05 0.00061973641592380404163 -0.0025731342386657979869 -0.0015976281233242293264 0.00088577684194725953525 -0.0011178504843753311708 7.770729325618206697e-05 0.00062522051721622341671 0.002512091147688638379 0.00082961638821851173362 0.00069213336418402640962 0.0006847290334919083803 -0.00033402472808867234586 0.0003188658524472461368 0.0038520695533743173553 9.9556290384699000278e-05 -0.001045662999151355339 -0.0010724062830600720499 0.00071967745208062787118 -0.0016228992002645238439 9.9556290384699271329e-05 0.00076056238309200343249 -0.00017273491672411338499 -4.7766468088704742685e-06 0.00081251691671985128585 0.00040950572901544838103 0.00064603750482476090047 -0.0011774141895705535904 0.00061288986556508220742 -0.00037919577048709781969 -0.00061973641592380480057 -0.00014276873444094668412 0.00025760711347698391502 -0.0003791957704870973318 -0.00018532980187317465905 0.00060556410070493999712 0.00029589079507288089258 -0.00014820450730242433132 -0.0012494547762344715511 -0.0028843107289631729831 -0.0011500836851553169083 -0.0054760655142761151953 -4.0270672229085594006e-05 -0.00038150110569943224441 0.00052946495787250516182 0.00061973641592380447531 -0.00060034079190812825351 0.00060547046238215848288 4.5235801493353155166e-05 0.0012408406003836562007 2.650631810025687611e-06 -0.0013332815585422883378 0.001271225448760794326 -0.00019417514429252746063 0.00041604402558330599816 0.0006126259103625776364 0.0022998463013182519551 0.00069309576522440762003 0.0015015199444797955753 0.001501519944479796009 0.00083713674058287837736 0.00083713674058287816052 0.0012999247268989731329 -0.0021092019730214604974 0.00011933938438908878643 -0.0032364092853383523256 0.0019292407847890198289 0.00019143722000310178593 0.00011666531590964724589 0.0011605923483852269209 -0.00021621002632614424554 -0.0010978399803042930127 0.0028833691188282135377 -0.00042058645651811717419 -0.0027912080093824586692 0.0019692406819000547909 0.00063613609666588008962 -0.00047491791704042508968 0.00056922495592956847722 -7.2253298171336716063e-05 0.0011111038164283882235 0.00069213336418402640962 0.0014632981456771975478 0.0023440214657652379618 0.002055311234892215691 -0.0012187136805213425773 -0.0010413030292239419932 -0.00011394728960946172262 0.0051349376535312950612 0.00016589854814189533409 -0.0024196336021968392963 0.00072445093228066777605 -0.00137636310977875642 -0.0013478908676680674116 -0.0021832765674569807636 -0.0008464659623243070679 0.0050569656000532276635 0.00057684593047895829816 0.0016673995814363087864 -0.0024865932182717965203 -2.9415471347174983641e-05 -0.00050410058390298363717 -0.00069114455522090373959 -0.00011694513289209449054 -0.00064267017587282305752 -0.0027621908347081444886 -0.0015764149291415095484 -0.00041093171042170211068 -0.0015478086305989024324 -0.0038253248632939928879 -0.0038966919193908948829 -0.00054566406247349367575 0.0002285701160908401087 0.0025430076485691739674 4.994636211362561023e-05 0.0045252764026753895116 0.00014210600794364291999 0.0046212284636942893568 -0.00031461277256335858522 -0.0012227348807899382239 0.0025284689951675987964 -0.0022396313506402938838 -0.0017454508437899267717 0.00062522051721622395881 0.00062522051721622352513 -2.5737021710900412548e-05 -0.0019565891903886400809 0.0015358945862910999749 0.00045998956227411052144 0.00066437717451999064779 0.00090527309414926320549 -0.00021632530784672747968 -0.0012087159317296343811 -0.0016090462419193303154 0.003566710463427101227 -0.0012091018817153992293 -0.001562721789567903018 0.00064731377989419420192 -0.00024521262291129543049 0.00084243307446841338582 -0.00075753788220597718332 0.00064761478287205225673 0.00074494678111951186539 9.9556290384699108699e-05;-0.0053628169243080496542 -0.0007612774258667292333 0.00066500036641390768838 0.001136010144646825348 -0.0033781708599988254094 -0.0082034499149810143764 5.6174723085509675811e-05 0.00012479419090235123035 -0.0016832912196741327878 -0.0027436823352706631203 -0.0029308582988565165181 0.0030049966380255991628 -0.00058665725543102938654 0.0016329300875910718674 -0.00072644643230542860039 -0.0014647142452017328229 -0.0014956860776805453502 0.0024022006444309055087 0.00028785588496134785572 -0.0024265587023644275694 0.00085240183936118431654 0.00069951493892431680643 -0.0015147118800766918266 -0.0049183476388916869473 0.0011229386303080453151 0.00060870413224886599744 0.00054363463105774141506 0.0023683977887356375165 0.0027780800113679942655 0.00095055346686679829081 0.00075918668585719104643 0.0023683977887356258071 0.00011598751563937043465 0.0023683977887356284092 -0.0027187503119339099383 0.00095055346686679818239 -0.0012388910035895264565 0.0013221624126659079455 0.00029640591173672075406 0.00070058530700224045783 0.00012447078819601445723 0.006340769469719224026 0.0086181871069408531177 -0.0025558876096500528392 -0.00042650119617305910823 0.0013666310956691653938 0.00035882445832985415029 0.0037229079469572753068 -0.00070332201698536411013 8.4318511359250572067e-05 -0.00092749191078909303063 0.0006521468455423629464 0.0019700434672000810207 0.00012635912049112287166 -0.0012026886392540437308 0.00058840307741501573363 0.00010543117575360582924 0.0011889779341400237133 -0.00028844386441678645768 0.00092955652889549836293 -0.0039091298198789658364 -0.00061788432955025640939 0.00042626935893404720558 0.00037111856828024900956 0.003581583346955921187 -0.0014614222399669017996 0.00092105274950940463092 0.000673534169578705183 0.00028760302564694560385 -0.00047995089546488787927 0.0037659622113707202744 -0.00092749191078907980337 0.00034568305195382048123 -0.0011460615702505421842 0.002353422069909588514 -0.0003371253317527224294 -0.005350269108030755727 0.003306175585752856548 -0.00046740516378430041391 0.00067353416957868458316 0.00033576282636211136337 -0.00048949150013951746741 0.00015609989937338006154 0.0006799440055089708097 -0.00031508694503319407271 0.00081330220174254379967 0.001048076858594370513 0.000468876920410350056 0.00081330220174254445019 -0.0018232119030667289644 -0.0022015069668988060218 -4.2866482688887644977e-05 0.00095521166541817940573 0.00078975697413777366622 -0.0040999845002342117858 0.00086651136118371567887 8.4318511359242955547e-05 -0.00065079277673960142948 -0.0017187685456328098427 -0.0013290794482776777195 5.0004687714454337571e-05 0.00068986640178166373696 -0.0014857228509742681326 -0.0006758398847794614122 -5.0768997778605431004e-05 0.00047288840107649946203 -0.00042650119617303406316 0.0002323540185739855486 -0.001589172356623904693 -0.00020147846086185174411 -0.0010384780482272472964 0.0020101826868520094108 0.0020101826868520042066 0.00070332201698535489441 0.00067994400550897178548 -0.0012701436789713921836 -0.00078313276388972130355 0.00029501083409686976178 0.00099319611302418507257 -0.0028129700000481430537 0.0010773966692194730192 0.0017738865663463707512 -0.0010773966692194723686 0.003563824015637392581 -0.0078054494296086558355 0.0040951453114540375955 -0.00042650119617303314159 -0.00044965919687376651502 0.00092749191078908392333 -0.0011139883350195652588 0.0023769978423324655478 0.00060169276754439156817 0.0019173841035085880443 0.00051149129321326398424 0.001642772757706985505 0.00038091350639472143372 -0.0029462482987239052568 -0.0013966658097159083147 0.0023769978423324703183 -0.00042650119617303325001 0.0017400691524605584048 0.0014567577618053626463 0.0028422248632626015592 -9.6806251866898086799e-05 -0.00032730706367479497172 0.00083735524582948927391 -0.0011755566433455590276 -0.0018126268430944886614 0.0018126268430944910467 -0.0016427727577069863724 -0.0010924296301622331718 0.0018601017051084194238 0.0016229497960233184913 0.00012430124409390074652 0.0024222629991562877674 0.0049887324735649997767 0.00029966460209382184436 0.00026908912444298296179 0.00027496043238688056909 0.0043668144819974377344 -0.00042851189848631558504 2.1151109902682553918e-05 -0.0044093169973907697309 -0.00028844386441678081983 -0.00053703952363080343681 0.0023630023527487688945 0.0021108006258033678096 -0.00079434935287780495967 0.0009393699547630283064 0.0027052081395881060095 -0.00054646979805473086273 0.0014034784028630498814 -0.0010709960858851358661 0.0027178558366617706042 0.0011196622461353458299 -0.00035891796009752046726 -0.00052337943217350914229 -0.0021403755311448866699 0.0030634856490587480601 0.00046431074409531873171 0.00080019969552376436946 0.00073079215983797365941 0.00051077630030730777899 0.0021403755311448918741 -0.00036734646279481581897 0.0013091814516643146462 0.0010521384007362497275 0.0001662836741171371186 0.00047288840107649891993 -5.8152825703644294472e-05 0.00089053138452053137112 0.0037318417849655188649 -0.00018204442083881260377 -0.0011025791076668908265 0.0011025791076668906097 0.00053783267162316422509 -0.0016733929116380960676 0.003623889557797378095 -0.0023401737383046271497 0.0022069989329544154912 0.0028470022995001793842 -6.0171520050625444361e-05 0.0003711185682802593637 8.4318511359245625395e-05 -0.00055925747756165066805 -0.00028844386441678472295 -0.0011388861046827611356 0.00081048466946857908484 -2.3975171560801501302e-05 0.0028108629849465881743 0.0017457444932227411064 -0.00042650119617303292475 0.0073790332929073026991 -0.0034063741161521336916 0.0059434096049161217259 -9.6806251866878327214e-05 0.00029501083409687230965 0.00029360136714177818449 0.0011153010998081319943 0.00074638417258287008838 7.8053939074151684925e-05 0.00060870413224883162823 -0.0024990554746267979597 -0.0015405778359131236648 0.00086807094007614710954 -0.0010911498107887408586 8.4318511359245205267e-05 0.00061548274609749442816 0.0024434205433808424586 0.00081330220174254455861 0.0006799440055089718939 0.00067353416957867493376 -0.00031508694503319531954 0.00031204947790649644737 0.0037318417849655158292 0.00010543117575357808721 -0.0010055279084489547169 -0.0010438797481208119886 0.00070237262349283032577 -0.0015651486260751478179 0.0001054311757535782905 0.00074638417258287670202 -0.00015887792553327426495 6.4788735678453916766e-06 0.0007969199729235812088 0.00040604580612005743102 0.00063548460762121751749 -0.0011331706006127548105 0.00061440663817689670275 -0.00035891796009752079252 -0.00060870413224883271244 -0.00013033692766504950699 0.00024307593336368038409 -0.00035891796009752106357 -0.00017331916405793819933 0.00059639784254035652263 0.00029586369705866837803 -0.00013507138715377486763 -0.0012044553300757485266 -0.002800564169678324087 -0.0011071076571385184834 -0.0053193589094543899942 -3.13876893436139051e-05 -0.00036107290317351876333 0.0005223110978785045844 0.00060870413224883282086 -0.00057337669691283745053 0.00059623894346211650259 5.2692679059613433843e-05 0.0012069954149729889004 7.5826930389617726606e-06 -0.0012798520218428490868 0.0012419054917303868398 -0.00017934125536150799735 0.00041241290475386218348 0.00059776301398548081258 0.0022394923582692962197 0.0006819730469777395129 0.0014653994285164951162 0.0014653994285164951162 0.00082220851730671119274 0.0008222085173067120601 0.0012762076557284785829 -0.0020414992346811039817 0.00012447078819599483317 -0.0031488458409723407531 0.0018805039878450576559 0.00019469071278830192779 0.00012233740612857155975 0.0011346125108508654192 -0.00020082594814102629221 -0.0010561749477580625704 0.0027868382573721902154 -0.00039898043768381557389 -0.0027151595229478945985 0.0019300958425849774284 0.00061994260668606678954 -0.00045672843719785159288 0.00056087534749853847505 -6.1176216985345678156e-05 0.0010866512779165538125 0.00067994400550897156864 0.0014297322197031343393 0.0022802385723187457503 0.0020036129428766605298 -0.0012026886392540710527 -0.0010013265953920846753 -9.6806251866876714463e-05 0.0049806061102733211257 0.00016863928004737805126 -0.0023454806248288926664 0.00071074809203193576191 -0.0013257326260058663239 -0.0012925337595047290806 -0.002128709806772957798 -0.00081221633068379723002 0.0049220550084053318191 0.00056916019895769155452 0.001625688295551643188 -0.0024030677650026810444 -1.7815553141003756066e-05 -0.00048485363097817133805 -0.00066022680960883763004 -0.00010695008156810877802 -0.0006147021171714765796 -0.0026718729118505404364 -0.0015203300312393061393 -0.00040677342475557666177 -0.001492708728560272367 -0.003708008729935193936 -0.0037812565144740677148 -0.00052117473615248359736 0.00023029642915047153951 0.0024647820308140999668 5.4338349467679248716e-05 0.0043884049789995813184 0.00014669727908475684573 0.0044855895374179641927 -0.00029775904191731221134 -0.0011755566433455594613 0.002438729012138242825 -0.002175368551790822242 -0.001689586534795884526 0.00061548274609749551237 0.00061548274609749551237 -1.6058848157026309243e-05 -0.0018895394388297333775 0.0014952647002105577765 0.00045523194594889208539 0.00065331341539691465802 0.00088644506868666803501 -0.00020096045978035267997 -0.0011578560095140434921 -0.0015567355604066096357 0.0034704456831149356651 -0.0011676191793362469731 -0.0015229384424575271532 0.00063652057702230928522 -0.00023034348030031654092 0.00082615536760053905931 -0.00072644643230542979302 0.00063739488042788858355 0.00073137445393888541722 0.00010543117575357834471;0.048532948178268871253 0.004561365080815803219 -0.0001439986196571163351 -0.029695181913203236301 0.0015651144267311608693 0.044343572861227108228 -0.0073923270695573769715 0.031915762938168071305 0.029468125716422925719 0.019851077875051987426 0.033628757329746856997 0.045933137481408724268 -0.00055856264029228725864 0.020174638838735377971 -0.0033551805055380837586 4.3119762176670807822e-05 -0.057919507744702315721 -0.024267251017113144335 -0.0020315298008221926475 0.0057261529115056209599 0.052558673181673835895 -0.0032163567174957412818 -0.025060802524878619812 0.0050874105571848257309 -0.0098721783745951158934 -0.0083925592560662957281 -0.00067412877475661766007 -0.01811010752295949891 -0.019726846703673559663 -0.0088464665780533073558 -0.0086866948935566089263 -0.018110107522959734833 -0.0050554360782453355155 -0.018110107522959269927 0.013400783186760169274 -0.0088464665780533507239 0.0046858691159680464222 -0.033650580718623361587 -0.0017825563335086623377 0.061002317488401736068 0.0070815760012249021407 0.0061669112157108404298 0.056257102660890484502 0.014096330858936780006 -0.0014014845208694755221 0.01975592209318236675 -0.015371390919278049916 -0.015812757303035777229 0.013198109784842213324 0.00077739788894319789871 0.0055890891352092225003 -0.004716832542113541353 0.026373777224148058779 -0.0043835502352299882123 -0.0096232786048612885266 -0.0052644475125281703018 -0.0011803796516755742443 -0.011216405954815118068 -0.0021378420825580481124 0.0043422874555468071039 -0.00055731350963649189771 0.0041979453344360298864 -0.0050083568621285762604 -0.0040277018348615876986 -0.02096534230672311358 5.0680727204824511153e-05 0.015782665309881795113 -0.0025111349644270091093 -0.0061427310920131716204 0.0061988626331754299176 0.0075163801212195634899 0.0055890891352091461725 -0.045971464031540891504 0.0010063725050226952733 0.013344170907624569936 0.0046123671995945882823 0.048695087305967707514 0.025721024107638244122 0.00050262430295217161349 -0.0025111349644270819677 -0.069704359066158225189 -0.0016993772917522150141 -0.0020555709268113833352 -0.007680316328652665378 0.0025936206008378287491 -0.0084774671709006311354 -0.009948697078115124881 -0.0032192740506695066184 -0.0084774671709006363396 0.018093658499655478761 -0.048810735893525442064 -0.0020005792644680921166 0.0016815952957458370296 -0.008570652374075319116 -0.076707362141708229641 0.00061415380054905324963 0.00077739788894321177649 -2.34618205118765664e-05 0.0089831636666245807954 -0.017795498806881259596 0.022197015319362304459 -0.0069251508988869480907 0.018055868102389485003 0.0039717273892342520175 0.0012706986335198470518 -0.00015925771890289895866 -0.001401484520869077403 -0.0096670079155891670136 0.00066507986251165981083 -0.092944249701742004399 -0.014392772202391265063 0.021540164383441345181 0.021540164383441244567 -0.013198109784842128323 -0.0076803163286526896641 -0.0041591422706863286074 0.003726914193129067434 -0.0073748836400575629862 -0.015727435853126067733 -0.059228257674843499958 -0.0096362984313475910647 0.016857254128240455049 0.0096362984313476101467 -0.042201138020191590605 -0.013046737347427683068 0.0011095450939713679891 -0.0014014845208690771862 0.016553458810833601711 -0.0055890891352091678565 -0.0085558371096655806004 0.020279352497312011505 0.026823317558284483914 0.022667113165528187529 -0.014764131679867710523 -0.057675394283459822942 0.00067797988907710696107 -0.047249296242559225834 0.00077680883529544916214 0.020279352497312004566 -0.0014014845208690806556 -0.01092428110013019503 -0.017672358507994041787 0.10443034484980993903 0.035635859277163499381 -0.0049728124232047031181 -0.08381758929552685089 -0.024783482032440996845 0.023685486627798905263 -0.023685486627798939957 0.05767539428345996172 0.012542179134788344202 -0.011525330527020335655 0.012970049514032281138 -0.00074021199745546431212 -0.023956653581904480826 -0.039726592245617656229 -0.0042608697504817050206 -0.010838798146667135217 -0.0034009422264338253633 -0.057233766675100265775 0.012919441163140690451 -0.0068135553093936129451 0.065551689142988117665 -0.0021378420825588491209 -0.027024440720379360598 0.0023147547465169424769 -0.037350183623208986494 -0.0049601114475627755898 -0.058313624797022983737 0.021036408144346239318 0.0033995317754251445745 0.057427341725576223908 -0.010125379378512029335 -0.0016517248920097711996 -0.0049927899351632698197 0.0028020024154389298367 0.010091173364352917785 0.055206969143962621172 -0.061086101885422641744 -0.0015337827815335041727 -0.0053601067597634968059 -0.066907661918634633857 -0.0037592274058912181732 -0.055206969143962163205 0.027823235888862086346 -0.023344127555453782902 0.0072724723479071278973 -0.0063758884271440715436 -0.00015925771890288906532 0.0086569976181976888291 -0.0043593923796758178232 -0.0075236289330862099467 0.0092382951148287355964 0.01027464952600795102 -0.010274649526007944081 -0.048253855582920480993 0.016689051048463396376 0.0021888169279788600996 -0.020135935078024923967 -0.022848499249893131774 0.015263998331384453708 0.0078342101759241201953 -0.0040277018348613916748 0.00077739788894320743969 -0.060633516133214326871 -0.0021378420825588499883 0.010703385777256132008 -0.051986149133437006831 -0.024613539494372532745 0.023778954386315446362 0.009361127229905523775 -0.0014014845208691001713 0.027947387661542869713 0.0078980467998568028992 -0.092987166913324453832 0.035635859277163547953 -0.0073748836400575482411 0.023832596576773664582 -0.037280953916124473513 -0.015772351828340146901 -0.075479306285210309713 -0.0083925592560658464347 -0.026705608656461328476 0.013691604785022577773 0.0028587276425931021362 0.0073584665563115421102 0.00077739788894320494602 0.0061489883496056475798 -0.020767274131807993837 -0.0084774671709005999104 -0.0076803163286526462961 -0.0025111349644270958455 0.0025936206008378499994 -0.064220413834122705432 -0.0075236289330863938274 -0.0011803796516754434896 0.0099062349350074203197 0.01561752421631407671 -0.01129520062297075661 0.015956994462424423792 -0.0011803796516754445738 -0.015772351828340015062 -0.0007257576149671873594 -0.016744451751483698659 -0.0060891910604131491841 -0.0025314968422435984823 -0.0018761173448603803322 0.00045434106424173663786 0.04004653873067576253 0.0028020024154389536891 0.0083925592560658551083 -0.009325414051073736138 0.0068684469286134320828 0.0028020024154389523881 0.006546760437763749288 -0.0048175011655945598407 -0.0032348539456498064983 0.002371608477907588379 0.014614674874808157579 0.038129780769489529657 0.0085516069162872680731 -0.016859777490185971077 -0.0018797491148250819546 0.00030177513554184093791 -0.0055288670141037665751 -0.0083925592560658585778 0.0050644280095009852269 -0.0030918520752804285606 -0.0017752652577811803454 -0.024562762231198850132 0.0008324617824714691805 -0.029298333159102196016 -0.0081076619007995863464 -0.018814587962700576179 -0.0044482659353543953576 -0.026598384707017575651 -0.023044675119790174883 -0.005045058124511734958 -0.013432003740730591099 -0.013432003740730592833 -0.0090169748247209691172 -0.009016974824720963913 -0.087169832633793006837 -0.08025911442883912339 0.0070815760012250591332 0.029204589991573368102 -0.011102329376251334966 -0.019066639609650475745 -0.0019189194469048987714 -0.0030501290856561522578 0.004773253101880175174 0.006039257526412937678 0.019559559276366825925 0.0063023513624189883564 -0.032924363315628472904 0.041170705453025584208 0.022777978243689014221 -0.023501891943776598987 0.0068677189161792679545 0.0016636444391051501742 -0.0026834751505730699075 -0.0076803163286526410919 -0.060013713688961460579 -0.003539676986800729952 -0.01069582629108832908 -0.0096232786048611306667 0.00081304316509881683489 0.035635859277163409176 0.0060718526651361588026 -0.011861584272202074786 0.019721794861167207813 -0.020368907286688758135 -0.0058590566678347593549 0.036721633400420623794 0.0068479362216329504875 0.0078219942579495563284 -0.029565779312833738446 -0.017564772438603992732 0.0074680235463660043713 0.022355705064636976348 0.060739326340950021421 -0.030000435110370239633 0.033543561871052750278 0.019195225681248082039 -0.0034479720687626957271 0.054213208481805039152 -0.012458642221429372041 0.0030024784269943051961 -0.032151035645127265528 0.049163318432674435465 -0.058444792731834518951 -0.0086056421277493390376 -0.0076517310125946381635 -0.069447825533989662738 0.016102091736492601948 -0.0040983952549167911375 -0.0019757236123877186355 -0.080507493681090017135 0.013377073640874844254 -0.024783482032441118276 -0.027957155304817998126 0.054842015066610162732 -0.052679985857749779543 0.0061489883496056389062 0.0061489883496056389062 0.0077113160104167900039 -0.034907321496698284768 0.021555672250911098869 -0.0026778042744681012331 -0.0045770737268092144545 -0.011566811322076405236 0.0043516168169367768978 0.0053630304295096851638 -0.006387001037496460587 -0.040531632986852521305 0.02861947353978462269 0.019424960441896767238 0.0013076849358570575774 0.013125775884041962147 -0.01003599554108689125 -0.0033551805055383465692 -0.011398748548241429898 -0.0074636851553929852224 -0.0011803796516754447906;-0.0054309266087229132042 -0.00076772923864185669066 0.00067238864148789047673 0.0011523986561290467182 -0.0034236569409470136299 -0.0083045136876156219058 5.3862379346498922487e-05 0.00012428953176715781619 -0.0017078568541631785564 -0.0027825010406357856933 -0.0029716204505404178113 0.0030409009369249295936 -0.00059755517745910930426 0.0016493042537690830954 -0.00073880103503159511372 -0.0014862860942242552085 -0.0015161592002461254502 0.0024310532928449031347 0.00028779402744307750351 -0.0024582745062007790859 0.00085967555620719148142 0.00070386313680178788123 -0.0015375192191097676511 -0.0049802586621708697795 0.0011331000905051367544 0.00061313308433534271808 0.00054664772675469747772 0.0024017002841768093566 0.0028084688715295518142 0.00095872504455112332253 0.00076477294065523235191 0.0024017002841766163686 0.0001139361128717044432 0.0024017002841766042255 -0.002754941790708918814 0.00095872504455112202149 -0.0012577163021888389249 0.0013347129169436909493 0.0002964536080601579051 0.00070507928065462969341 0.0001224584682902824591 0.0064200621052805566594 0.0087248334570365817381 -0.0025898205129996306785 -0.00043508670522416801815 0.001382002716847539241 0.0003630010209706538188 0.0037723470877248890983 -0.00071457659390258235644 8.1728456159266312376e-05 -0.00094210531532313223583 0.00065704063687821152948 0.001992195982895462493 0.00012447544402135747284 -0.001209271377330992667 0.00059209341304484054257 0.00010313458286498366004 0.0012062959122918731451 -0.00029559931081073344663 0.00093788578414297229819 -0.0039584827816100225106 -0.00062877566082805897742 0.00042833539148437173262 0.00037214177187097391593 0.0036235973988908427683 -0.0014829815506842661688 0.00093640631679638023158 0.00067807362756563580811 0.00029017604191182726128 -0.00048222452765804297431 0.0038096585108242813668 -0.00094210531532312063487 0.00034619482855340885175 -0.0011638103274235105447 0.0023790863224340090543 -0.00033792148893091363817 -0.0054171472080580280323 0.0033441110433754823311 -0.00047646678686658104976 0.00067807362756562594187 0.00033843776445316648468 -0.00049943095567866059147 0.0001544332482643393878 0.00068485573372675009451 -0.00032259209873152232435 0.00081985864854048164964 0.001057455682142528124 0.00047111171759054256596 0.00081985864854048230016 -0.0018493771877971308497 -0.0022301225549922290038 -4.6966519340058510785e-05 0.00097012291589408607053 0.00079603003601357025243 -0.0041533617379768293307 0.00088035474031315948378 8.1728456159277723604e-05 -0.00066155307399582286964 -0.0017442842114046795948 -0.0013486842246036437939 4.6809534050717357425e-05 0.00069499490424674767713 -0.0015093170721522625004 -0.00068769493470633759075 -4.8153900191696478159e-05 0.00047520088599410631848 -0.0004350867052241548451 0.00023327017177255607999 -0.0016126165569561132663 -0.0002098780836534389245 -0.0010558518140210398223 0.002039255847798326568 0.002039255847798325267 0.00071457659390259742685 0.00068485573372675139555 -0.001289548724174070923 -0.00079633547552474231567 0.00029505101507241012155 0.0010021868848913708609 -0.002842509120651001784 0.0010940088479705486427 0.0017943056083899804835 -0.0010940088479705488596 0.003604593079066358615 -0.0079046890421090535567 0.0041459476959054813311 -0.00043508670522415403194 -0.00045861649120554614243 0.00094210531532312551378 -0.0011195032017499325066 0.0024037187096036414721 0.00061142819802851135561 0.0019384999778553099574 0.00051478479614140042805 0.0016635460332123114952 0.00038171639847610664645 -0.0029858957591496061539 -0.001417159395911545168 0.00240371870960364711 -0.00043508670522415473668 0.0017585587895543653737 0.0014748003727053774804 0.0028724153617494755514 -0.00010352080318500321869 -0.00033510316603358570415 0.00084509345013203103578 -0.0011943408908428368963 -0.001832617403659356518 0.0018326174036593352677 -0.0016635460332123180004 -0.0011093316922439616645 0.0018794931840524227006 0.0016425297572077589454 0.00012259829277293335945 0.0024489614500537303272 0.0050516548715911300388 0.00029984629509352442008 0.00026919970010082808166 0.00027469793246441922586 0.0044161040619796398596 -0.00043737877863586372426 1.810021074060555861e-05 -0.0044599351053038471804 -0.00029559931081071517782 -0.00054626551361137097845 0.0023880193474435681793 0.0021330496006696873096 -0.000807525384028249648 0.00094535688221720397349 0.0027404580211436652473 -0.00055695253563063477908 0.0014195778330459952413 -0.0010856922646165587804 0.0027497876793056343775 0.0011299512681581887121 -0.00036695635472115819631 -0.00053326093409118875688 -0.0021656210902337943471 0.0030996866861350245992 0.00047283604421343344891 0.0008065147771029556982 0.00073976041743324498501 0.00051344807962384680314 0.0021656210902337960818 -0.00037565594172485285065 0.0013223670470291614548 0.0010615059896213435535 0.0001650464272425320616 0.00047520088599410539691 -6.2435861197952205893e-05 0.00089969990837319871544 0.0037796977508596251751 -0.00018774946590728125526 -0.001119833588335594635 0.001119833588335594635 0.00054194648197317639438 -0.0016973180557773642416 0.0036659500601568385629 -0.0023664278416992497352 0.0022307164371414946527 0.0028799721660340642758 -6.4615631400768939606e-05 0.00037214177187097706011 8.1728456159279078857e-05 -0.00056820088904315912016 -0.00029559931081071550308 -0.0011564817346485388363 0.00081941937417025483437 -2.884248323359260208e-05 0.0028463025531686551861 0.0017649734993303871269 -0.00043508670522415457405 0.0074702947770571509825 -0.0034493107686898228682 0.0060152386319611466162 -0.00010352080318499695742 0.00029505101507241158522 0.0002964550929900562409 0.0011298911552335732297 0.00075208830870657184756 7.6448593414429788138e-05 0.00061313308433531496251 -0.0025285981050783496241 -0.0015632781190802144157 0.00087517790832174723048 -0.0011018158995227216295 8.172845615927930925e-05 0.00061941058104159811646 0.0024708772866097665315 0.00081985864854048240858 0.00068485573372675204607 0.00067807362756562247243 -0.00032259209873152292066 0.00031477885709201182526 0.0037796977508596290782 0.0001031345828649681424 -0.0010214788198348275557 -0.0010551857056109604366 0.00070922449725820038008 -0.0015881313707881063862 0.00010313458286496776292 0.00075208830870654604355 -0.00016436859062097421559 2.0470280229781022483e-06 0.00080318547412776134572 0.00040747109168157353599 0.00063973981841407246904 -0.0011507656205121848114 0.00061392218491942117387 -0.00036695635472115917209 -0.00061313308433531572145 -0.00013526132722439844773 0.00024886653252933100145 -0.00036695635472115873841 -0.00017811285098301820186 0.00060009929024353763412 0.0002959203786623848401 -0.00014026296423722207007 -0.0012223674829014198346 -0.0028338491876757944399 -0.0011241993775730899693 -0.0053818950489449984831 -3.4896939256653152698e-05 -0.00036917276208344818132 0.00052520758198213704417 0.00061313308433531539619 -0.0005840822284329606805 0.00059996617889666837512 4.976506685188592015e-05 0.0012205171188142771663 5.626427850318945227e-06 -0.0013010814977062730522 0.0012536493388624779174 -0.00018519877096579543427 0.00041390667942636143531 0.00060367680631100780093 0.0022635796400761192156 0.00068648003596763625903 0.001479853296235661593 0.0014798532962356613762 0.00082821663956393902668 0.0008282166395639396772 0.0012857629939838975501 -0.0020684855012227344392 0.00012245846829025017698 -0.0031838243230131505444 0.001900002665058688053 0.00019343603056905527178 0.00012012697458241934547 0.001145018805098406596 -0.00020691902998254182847 -0.0010727433275178220248 0.0028252194689000506393 -0.00040755195075061232757 -0.0027455204717539258459 0.0019458246235433836711 0.00062638860922807062734 -0.00046394500361835404713 0.00056423652909715277855 -6.5547436636128188041e-05 0.0010964516249160995761 0.00068485573372675139555 0.0014432028944638944281 0.0023056923640886327516 0.0020242960427183059706 -0.0012092713773310345172 -0.0010172245883497182863 -0.0001035208031849922818 0.0050420943840179853826 0.00016757754005036396461 -0.0023750155224567873202 0.00071624388058425360673 -0.0013458690954923841539 -0.0013145204598010401358 -0.0021506099421405191867 -0.00082582701712780178741 0.004975913951058608814 0.00057233817298137231681 0.0016423565720329982073 -0.0024363258941431432426 -2.2391785542650394171e-05 -0.00049249540190043721282 -0.00067249316731986404604 -0.00011090848426473707796 -0.00062579435246829819266 -0.0027078658023118600158 -0.0015426510851316106634 -0.00040845281937753810794 -0.0015146545727483873896 -0.0037547805737717650058 -0.0038272924924328635167 -0.00053090212692863717695 0.00022964955092553518239 0.0024958524323349545217 5.2621368556421523131e-05 0.0044429635997822901003 0.00014491265166255315423 0.004539701921933996312 -0.00030448801984328912381 -0.0011943408908428147785 0.0024744352448514564738 -0.0022009796807131165597 -0.0017118848322548445729 0.0006194105810415972491 0.0006194105810415972491 -1.9873377654745242248e-05 -0.0019162435441240348744 0.001511452992053090652 0.00045717901232655350956 0.00065777096517033537687 0.00089399697396589468054 -0.00020704178914078116207 -0.0011780512018294863382 -0.0015775592561212070045 0.0035089292161656843519 -0.0011841335739978843533 -0.0015389143658629833057 0.0006408597762765369998 -0.00023623492622453455807 0.00083268985078084210762 -0.00073880103503159543898 0.00064151951545688139667 0.00073683171241160265799 0.00010313458286496829147;0.0055493441810605609668 0.00077882293523011598448 -0.00068526970610670258268 -0.0011809971537637717169 0.0035028278620062875542 0.0084801138849436071693 -4.983517177076589148e-05 -0.00012332678567147161179 0.0017506787065482986871 0.00285023534087626082 0.0030426629384550283285 -0.0031034692141085769811 0.00061665002150598563144 -0.0016775477347615291163 0.00076040278734139669838 0.0015239016025762714638 0.0015518958041163591864 -0.0024811509580908133916 -0.00028753105038136509081 0.0025134458673629978334 -0.00087219599340810326227 -0.00071116965358816502853 0.0015772844057816864417 0.0050877342096215458223 -0.0011505516879650118725 -0.00062073436001570817325 -0.00055173325686651470984 -0.0024601775077555910684 -0.0028611056101393323586 -0.00097277936867409234463 -0.00077422911975574023984 -0.0024601775077566852452 -0.00011022888373490161216 -0.0024601775077566765716 0.002817734530924129871 -0.00097277936867409136885 0.0012905681930374997973 -0.0013564047218135673236 -0.00029639190811724661816 -0.00071266034664093584183 -0.00011885564468525964383 -0.0065581315174204728169 -0.0089101486771391257002 0.0026487701550015640452 0.00045011028445793077385 -0.0014086508166891746271 -0.0003704274159834225629 -0.0038586078068421386829 0.00073424978478321830614 -7.7082761063662359313e-05 0.00096759729665146603211 -0.0006654482676115583634 -0.002030795193349442529 -0.00012103469569916640032 0.001220100261355069101 -0.00059835622191948504168 -9.899924130027677586e-05 -0.0012365146583895553038 0.00030817827967785063788 -0.00095225660702015642832 0.0040444581268148779504 0.00064781442885403412758 -0.00043187126978854958621 -0.00037378321514738496994 -0.0036967504935398664764 0.0015205618276645251584 -0.00096323908695356518211 -0.0006857224673650595681 -0.00029458081080324140244 0.00048602974670065911354 -0.003885499948043515811 0.00096759729665145855111 -0.00034697301697740210932 0.0011947982040667944493 -0.002423527590749194327 0.00033922453261890162315 0.0055336746436275693548 -0.0034101195798052433977 0.00049233880342063724399 -0.00068572246736503831774 -0.00034311660228401413787 0.00051683074382766159768 -0.00015139196779145704173 -0.000693228185761473421 0.00033577804157062851381 -0.00083108893971533962311 -0.0010735980001496921513 -0.00047485255683669068925 -0.00083108893971534016521 0.0018949897588874018393 0.0022797700842813665816 5.4234760640522379515e-05 -0.00099609240612457392895 -0.0008067680615369931911 0.004246376441000864789 -0.0009044690105857683491 -7.7082761063688082009e-05 0.00068037378191078770346 0.0017887408803024334135 0.001382874099571070655 -4.1086639967218554429e-05 -0.00070376833364850109511 0.0015505458309968333727 0.00070843482950373791538 4.3547420165935526917e-05 -0.00047911707014869337308 0.00045011028445792334706 -0.00023505254526811955444 0.0016537000974770448003 0.00022463836310458837504 0.0010862689547764786246 -0.002090153423287584647 -0.0020901534232875777081 -0.00073424978478369578878 -0.00069322818576147428836 0.0013234245809546798904 0.00081941991832481749815 -0.00029497687694126311199 -0.0010176994822179610389 0.0028936835321336749904 -0.0011229387931820549503 -0.0018297247291853130629 0.0011229387931820551672 -0.0036753337310068048133 0.0080775125970616260679 -0.0042344947570712642912 0.00045011028445792280496 0.00047432845277020331759 -0.00096759729665146234582 0.0011284768658160770384 -0.002450135720883343457 -0.00062849776599512106184 -0.0019751906453091207412 -0.0005202802409542562484 -0.0016996791994766029341 -0.00038290016002118449148 0.0030550452658676700499 0.001452913906465117715 -0.0024501357208833512633 0.00045011028445792334706 -0.0017907679162810345198 -0.0015062785122236285306 -0.0029245847258821864277 0.00011556737004604476391 0.00034879804115490803049 -0.0008582926138242326277 0.0012270661314027358785 0.0018673510233784276161 -0.0018673510233784230625 0.0016996791994766209319 0.0011388115429110490066 -0.0019130541308839778877 -0.0016766130530314346872 -0.00011953617947064272206 -0.0024955735358665508475 -0.0051611958692178655853 -0.00030001870342631143437 -0.00026926952929328800421 -0.00027409705251122730169 -0.004501402924140172207 0.00045291167128413235355 -1.2678937871469606616e-05 0.0045476129410031203987 0.00030817827967787573716 0.00056241556495068489516 -0.0024312515678296185533 -0.0021715488730675741071 0.0008305547858156700795 -0.000955600339853615653 -0.0028015444685953799428 0.00057530013419346997302 -0.0014474867865124844794 0.0011112881651150242901 -0.0028050904701452596297 -0.001147720380470972296 0.00038107225994097671581 0.00055055882987483696373 0.0022094857208397400763 -0.0031625423830160329097 -0.00048766379869118219774 -0.00081734499811756484901 -0.00075573128116039102204 -0.00051790715141596479522 -0.0022094857208397422448 0.00039029156619129379453 -0.0013452674192310084492 -0.0010776444634269853693 -0.00016278657193671348035 -0.00047911707014869499939 7.0038392142425515271e-05 -0.00091551350271770347202 -0.003863114582626297859 0.00019775864982709702553 0.0011499623918021009954 -0.0011499623918021001281 -0.00054915999843685794901 0.0017389751508803173805 -0.0037390005873057323947 0.0024120068653973574663 -0.0022717848928809065805 -0.0029373140032600574857 7.2474793836922938423e-05 -0.00037378321514738572888 -7.7082761063690792514e-05 0.0005839031784533108135 0.00030817827967787589979 0.0011872209386507080568 -0.00083503843775571359211 3.7416171556647613333e-05 -0.0029077053400175956882 -0.0017983877250903176816 0.00045011028445792275075 -0.0076290407866924161984 0.0035236681301174920672 -0.0061403469470232546062 0.00011556737004605644619 -0.00029497687694126560566 -0.00030154584850764106201 -0.0011551133159147079516 -0.00076183958957218387426 -7.3420277630477362636e-05 -0.00062073436001567705664 0.0025799164166557218836 0.0016028722911423788459 -0.00088737874901949050175 0.0011202876584662357223 -7.7082761063691022907e-05 -0.00062609358805994902702 -0.0025183478685765212438 -0.00083108893971534038205 -0.0006932281857614745052 -0.00068572246736502877676 0.00033577804157062943538 -0.00031948532612447567243 -0.0038631145826262900528 -9.8999241300278619004e-05 0.0010493601846969298919 0.0010750483241074365245 -0.00072128315701320449334 0.0016282061212843986376 -9.8999241300278646109e-05 -0.00076183958957222323079 0.00017401807350867656257 5.8305567882177248174e-06 -0.00081392592541706910384 -0.00040980361479806676466 -0.00064698419755759362711 0.0011814850768547429695 -0.0006127013007726007281 0.00038107225994097780001 0.00062073436001567738191 0.00014392057706218196536 -0.00025893883856134715772 0.00038107225994097725791 0.00018642720257605385477 -0.00060638420035215442275 -0.0002958742440712915046 0.0001494258750708272012 0.0012535882558638803547 0.0028920262033086908612 0.0011540376214713532303 0.0054903943450525351591 4.1097627119039447155e-05 0.00038339071627985449407 -0.00053010184023210063769 -0.00062073436001567781559 0.00060282911107557748519 -0.00060629663139040955704 -4.4533971798676688257e-05 -0.0012439287449773151276 -2.194851876875985664e-06 0.0013382052878236285094 -0.0012738883863934345395 0.00019555748856597425555 -0.0004163574951128305203 -0.00061399249836121758128 -0.0023053643896129858218 -0.00069408437015834340694 -0.0015048063182718247194 -0.0015048063182718247194 -0.0008384806576113208211 -0.00083848065761132060426 -0.0013020556573071471757 0.0021154055132207769639 -0.00011885564468523175273 0.0032444012569072004301 -0.0019336764244892341857 -0.00019112166330190400506 -0.00011612458509313466925 -0.0011629518423698732496 0.0002176357962484425459 0.001101674110597556256 -0.0028922546987362202781 0.00042258305684570623192 0.0027981567462837578751 -0.0019727757052722238312 -0.00063762382336121463389 0.00047659904579091350941 -0.00056997653867894902766 7.328659590880843937e-05 -0.0011133221467461026054 -0.00069322818576147472204 -0.0014663355835644481008 -0.0023498536678651029026 -0.0020600166250479079802 0.0012201002613550645474 0.0010449812635925719798 0.0001155673700460549012 -0.0051490917294381276931 -0.00016563477253654697459 0.0024264380018745612157 -0.00072569263802951236488 0.0013810210781229196632 0.0013529959663659979225 0.0021882133586115203039 0.00084962139592768186423 -0.005069293449348148857 -0.00057750191775903598947 -0.0016712042165102102866 0.0024942613272814343796 3.0497917408444387671e-05 0.00050587700895783464534 0.00069400161749018981095 0.00011787161179949105631 0.00064525627229478966541 0.0027704698147451908147 0.0015815682650940285359 0.00041130394739751418784 0.0015528642406490043501 0.003836070472592820798 0.0039072597443268334075 0.00054792210768383217776 -0.00022839486663685311016 -0.0025502225948617483937 -4.9530024836503108775e-05 -0.0045378174567334761055 -0.00014166644393739415142 -0.0046336376420528062325 0.0003161518199476256682 0.0012270661314027085566 -0.0025367185632392758379 0.0022455218972004956438 0.0017505562139546982595 -0.00062609358805994848492 -0.00062609358805994870176 2.6641740030714507832e-05 0.0019627419542515831853 -0.0015396209953263376331 -0.00046040444109905201073 -0.00066537123766414422044 -0.0009069787800106385604 0.00021775108083745209819 0.0012134084984193854295 0.0016138511112507873593 -0.0035754841417136909963 0.0012129116380701846899 0.0015663170898655624872 -0.0006482875447580859667 0.00024658976761263856625 -0.00084390550857429318457 0.00076040278734142044241 -0.00064853010048457316282 -0.00074617079144654837371 -9.8999241300279025579e-05;0.075156244471457772649 -0.009737373722966504927 0.0091988629983594354111 -0.0067740536379940277656 0.041726113227750778745 0.052121362407608180789 0.055821817389254124731 -0.05532805270111948448 0.014634778462112309552 0.0098412544884090742692 0.032524681457515101923 -0.031675248312244400073 0.0056673676582432355037 -0.020138640027453892645 0.0045714997464282817324 0.0040576305955828603778 -0.014503404363586287068 -0.029316984197996550504 -0.0011038258315163138219 0.026827696546012743534 0.02087180641009743487 0.0193034801141579275 0.023036987144023003682 0.0088860361938463711812 -0.024035734565208813351 -0.004952371628527268109 -0.0016853926542796703394 -0.049832443382676332166 -0.039049049897039382617 -0.0085118198194905590748 0.050256294350836901164 -0.049832443382676241961 0.0017291343658081973281 -0.049832443382676193389 -0.042342711713204590762 -0.0085118198194905469317 0.014502095652262660119 0.0086781699994485980015 -0.0019774559088342781588 -0.0032106412784262809181 -0.0095112189760044058701 -0.016779599456352736059 -0.010619241560025468457 0.018980819044192302064 0.011665602918488639922 0.028793405673443243226 0.041818513109009351758 0.15206776320515472123 -0.039795675086710398383 0.00049754239842550364997 0.015191462003637180161 0.0051501393817509595954 0.025119502753505832532 0.0097859767349965567224 -0.032648459537429459776 -5.6587389658270322999e-06 0.0004516937473796425761 0.035989890062209102528 0.0039029622464867683336 0.021485737322351945028 0.0017020776697057083977 0.014181118830259114433 0.0018890016448642741372 -0.0030205076976975663537 0.061925750967460009566 0.0043567592170838508742 0.054971815930616396706 0.017014873297294487442 0.03334248388020151499 0.0015052650081488364118 -0.013272947385792139771 0.015191462003637664149 -0.0060250896036944112666 0.013526465321218770002 -0.023250287316295165096 0.0046031260936609721263 0.026171316089681907757 -0.02311271064074074677 0.0020112684397285405559 0.017014873297294702548 -0.040249830328819687086 0.017106708266900381987 -0.00046994813765313089892 -0.0018948543148367721738 0.0045994484740444173398 -0.0032556283726988492072 -0.0042587505162288274291 0.00048524132730776679823 -0.0032556283726988561461 0.020893108377677344772 -0.0054151362986190549123 -0.0010723160111832199561 -0.0074849061240074695953 -0.0027180666250090647872 0.047987997747813045113 -0.006707542464881710749 0.00049754239842543480313 0.0053144443729757047737 0.016163188100548762233 0.013294531261989683477 0.00055318234700210580472 -0.0048903816368144076981 -0.0020915879027244952022 0.0065330981521584128094 -0.0061844154001144584568 -0.0042062814608219926266 0.01166560291848849247 -0.013417460246856773715 -0.034572866229110987835 0.0011308583882560807078 -0.039831887310477757935 0.081906937283219988233 0.081906937283220099255 0.039795675086710655122 -0.001894854314836789521 0.013928957997844803804 0.010842910025891565676 0.0025864803923969746646 0.001030486671917858971 -0.070549132233451106178 -0.0063653373743940803997 0.025944979291171812313 0.0063653373743940725935 0.025573819027958442224 -0.023888196794110284904 0.054032546038077992889 0.01166560291848849594 -0.025690295736728166465 -0.015191462003637773437 -0.033425823196555508321 -0.042396310406693379913 -0.0033592413414614457137 -0.037442267124196307315 0.029943308931389838595 0.016207615825026704809 0.025535667370477230231 0.012378999631844534932 0.0024684109500596471479 -0.042396310406693220318 0.01166560291848849247 -0.074148229493305489735 0.0049002028964588596055 0.0081299031787420636408 0.040820774542715959621 0.0059780794592023478798 0.045549276475585730173 0.014331173387714234851 -0.036239164076870049314 0.036239164076870153397 -0.016207615825026642359 0.015654920491219456724 -0.019665227706963321619 0.018281462987419686006 0.0077732448475462730814 0.041234253943877828552 -0.093694393706864068094 -0.0028849817889829011512 -0.0020044234427250033279 -0.0032534379643626952505 0.036598537599783848018 0.01558091836973690518 0.013833087957593958109 -0.052826973126371724876 0.0039029622464869170861 0.0024479978828996912243 0.024996077256019641477 0.0035098311190782092474 0.023715233742188829985 -0.026883399381907868708 -0.043353953952804474836 -0.0020199364312929227704 -0.065822408097115939207 0.080287346653336436053 -0.038826183862955838955 -0.011116111685436658521 0.0058060043930978355586 -0.0019875595013478541441 -0.015879487729072706143 0.0019629317829867546502 -0.00013805968831583645753 -0.0065611862017217713328 -0.012209854044127626052 0.0090878738847813504004 0.015879487729073257785 0.026158648265559213131 0.024862981031836973306 -0.0029123596584677211019 0.010385038121971250022 -0.00420628146082195533 -0.0074574235167629947252 -0.031617637954069709172 0.0030424523635155464006 -0.019776397633324605679 0.011475334824516028598 -0.011475334824516035537 -0.094983179337532280817 0.014612420663103311072 -0.045343128151310314877 0.0077448522328328345959 -0.022517834940478705791 -0.010800995444480342156 -0.025092252025575773056 -0.003020507697697708601 0.00049754239842539772342 -0.023519745714605851811 0.0039029622464869296629 0.017723348005289820545 0.0059792856626569596684 -0.0014016111801634584602 0.055562795933290547168 -0.0086356063535146850713 0.011665602918488511552 0.061813989722040267594 0.048180315761164764499 -0.074992743158547869875 0.040820774542715758393 0.0025864803923969638226 -0.021087906620898121124 0.0075629354374393102656 -0.0079717477511280082636 0.015943427933464468516 -0.0049523716285271848422 -0.014585480733972696482 0.021418739689715800972 -0.0020834523967943338954 -0.00043002218392675746125 0.00049754239842539945814 -0.0058986172188445918502 0.023826843075625308427 -0.0032556283726988591819 -0.0018948543148367801969 0.017014873297294647037 0.0045994484740444060641 0.053342382807629089292 0.0030424523635156344378 0.00045169374737971315767 0.016362573947425327475 -0.018045496830452034676 0.02392352898166493283 0.016637900274420878988 0.00045169374737971256135 -0.0079717477511281470415 -0.0079832043755904465859 -0.031355248657346491969 -0.0034772598337687392854 -0.0019877995340190132006 -0.0043315246036447086625 0.0098095706052185645957 0.021168198366890714907 0.0058060043930978442323 0.0049523716285271900464 0.0051143057890539822888 -0.00022162939184862471675 0.0058060043930978442323 0.013227035243045619922 -0.0052443519255758455286 -0.000848478572997761059 0.004774776918507081698 0.0087611357982332379452 -0.065953830314622444164 0.021977745526147507427 -0.065599882135069606526 0.0022324647402113314415 0.0028329765086440960968 -0.0044486136401071076432 -0.0049523716285271917811 0.0072712230295343752151 -0.0050347695993633910863 0.00081090108335719998829 -0.020842620719540724816 -0.011034263252530004604 -0.019875451179173952293 0.022984723870677226804 -0.0066423992474195043753 -0.0032254387330330662811 -0.0091776733867155891461 -0.033704965444013135212 -0.011241781743129447904 -0.011131058720890688388 -0.011131058720890686653 0.0022678492324037370469 0.0022678492324037439858 -0.028516041279324472191 0.038142651597366183935 -0.009511218976004820469 -0.01103842195681270337 0.034588150616391422076 -0.0061632610886839817727 -0.0040090417718329921307 -0.0083715938543394222138 9.3792285484317703542e-05 0.0086931232136430672958 0.066985142086738058698 -0.001355921050337682756 -0.027531850035283581685 0.012501377917872804821 0.061018839723661517926 -0.037211277805068485036 -0.003883603531424485375 0.0053819368955086389558 -0.0060359456714545785955 -0.0018948543148367847505 -0.045483182076012075579 0.00055258721055500084358 0.013439496132957992267 -0.032648459537429466715 0.011296785118423259206 0.040820774542715751454 -0.034606135966738754695 0.00021397172545874630005 -0.02274946248371866736 -0.031911751369024986269 0.0065879046381903776097 -0.01119986672275164602 -0.01215780853531002112 0.010029290537480235398 -0.072364290571274955677 -0.020317747143087660361 -0.0064335199751258086154 0.027198816590932421711 0.017322351295966230411 0.013064828554389423809 0.051342121496848622253 -0.014281301986853534372 0.0036009241926376217048 -0.032452493744111632346 0.0045480744905506322734 0.003826990231666682965 -0.0021514900226764187285 0.016196959041882459662 -0.0049632546777401646138 -0.030574447384761661156 -0.0084901114933079741692 0.094282679280949202583 0.048090405735969975198 0.025589719211224971895 -0.00037265812741052933366 0.052726887645398561044 -0.0050608751774863401304 0.014331173387714196688 -0.0070602720885000400108 -0.00035688217158111898517 -0.01094744829640745265 -0.0058986172188446005238 -0.0058986172188446022585 0.0043716645308748414145 -0.0039730592099249985305 -0.02705157026325957087 -0.0036791372249469819072 -0.0054987745735563201693 -0.0061366833028948146803 0.0025212077236318511907 -0.016515812542140486524 0.0068644560543912862965 -0.015934511866559961102 -0.0029346473969049449715 0.00051378090282666859928 -0.0020836776230392026199 0.021581855444042608722 0.00099811332157139789033 0.0045714997464289565399 0.013202224246167229213 -0.0064360657601099215477 0.00045169374737971033874;-0.046256153621531778675 -0.028152135871097900416 -0.0003655467204710591278 -0.089426640667634602067 -0.020047624425191565983 -0.067580519193658969423 -0.1041121574061274202 0.00049120455396240597125 0.012576045945360877359 0.0039993006390684343598 0.022471235583411647979 -0.023211946782037397308 -0.0050548387247007610726 0.0011673801464955665258 0.00049958228604759418248 -0.014498091977708094449 0.010448866200181374311 0.029956230098617205038 0.0043081740380605500554 -0.015162604787443209262 0.02133796178781302913 0.021356083471225709158 0.021825999847076772015 0.076392299099254060146 0.011827106769116231197 0.0019525453464874777901 0.0042912973732145264644 0.082955784490309533719 0.013009104256328592533 0.0077222133624950655556 -0.021256310322590631773 0.082955784490309103507 0.02346693477095136357 0.082955784490309228407 -0.0047576027049282144238 0.0077222133624949926972 -0.012935490269354714757 -0.019360431147834904902 0.004309738802714758836 0.042420106751358224728 0.0081875061469854296808 0.048065767909898408916 0.09895453493042837001 -0.0021362519545602516244 0.0044294265619603352332 -0.025432569597702070485 -0.014980468116912766183 0.027903350007403269345 -0.0020464701191765933934 -0.0027065319309136338065 -0.0048023844914641886095 0.01054711317758481523 0.029268167459276815678 0.00527282436298959125 0.064992924829576026458 0.0067459359835502817962 0.0028144203397022088398 0.0059359061230687326302 -0.00068077425570462304135 0.02674933252412631246 -0.11489537018676666824 -0.0029809033195054997732 0.014188966172745167901 0.0063407653372624609572 0.062462006439804762525 -0.035499123890393391445 -0.025850939847754710044 -0.053716751693876511886 0.0091315190133428834895 0.0058065987024324295512 0.015469216019377181326 -0.0048023844914640420253 -0.0179068149505169881 -0.012881829485077362848 -0.0016879645461024463809 -0.0013195345193256033823 0.015456878752492176493 0.049684574152897217902 0.007331099942401672967 -0.053716751693876498008 -0.032822512076691075233 -0.035852206662216709598 0.002764588753132900343 0.0024905482766681523443 -0.0010178902706398898666 0.0037749493509351222074 0.0028561102304673320965 -0.0040847453525091241902 0.003774949350935120039 -0.010516399295739803366 -0.011441630949465365213 0.021035533562658515622 -0.015020144575641583909 0.0035401343476607950202 0.0043821672082421606748 -0.010548778376020747499 -0.0027065319309136689346 0.057011795309226398487 -0.039358237733868720043 -0.041347587855529992218 0.024210492839119669706 -0.0049552673413554067933 -0.021515628410428738054 -0.0080847204554061295745 -0.0096130351041889879754 0.006948442810937697188 0.0044294265619604020201 0.029093252917495104198 0.098287133536752127605 -0.028000655375817157938 -0.045044801325025703165 -0.051665209020798956441 -0.05166520902079858174 0.0020464701191769936808 0.0024905482766681458391 -0.011897409581413690913 -0.002014041019277949731 0.0051472497496474227049 0.014563735741412892413 -0.044991683298296711313 0.0022723578570044318525 -0.02025944873557318851 -0.0022723578570043815456 -0.047532181657835827215 0.056489412145915490759 -0.01977613043440372767 0.004429426561960408959 -0.0052611842825848161367 0.0048023844914640489642 0.060521558629955299335 0.0072409406316854448005 -0.055064930595726348239 0.0015328365112774818176 0.015056037078636369531 -0.056439127851347518916 0.0023832602943106950648 0.046305805913890100978 -0.010750037218397252153 0.0072409406316854751581 0.0044294265619604115611 0.029347675281440888106 0.061771754568717168743 0.14259998250844499457 -0.023531549052419983847 -0.003742923900187048597 0.0051395617547752058332 -0.031339145986208551131 -0.026852060106515182603 0.026852060106515182603 0.056439127851347595244 -0.0044390272321821787685 0.015418283629701155443 -0.029075788425697333267 0.0044279754671122219592 0.014893568451567529287 -0.033868039750772967189 -0.005542201942039996429 -0.018554994595017575143 0.0027011602869925935115 0.003908022245322886716 0.023811478312549670677 0.0081084702268647487755 -0.001414631453582323355 -0.00068077425570442961968 -0.012604548686185755926 -0.0039256631956041199497 -0.032823561383593220786 -0.02117344827036395094 -0.050270690408308879582 -0.011488210288107683979 0.0085642156180424609813 0.028010812333858704087 0.017889146840679093914 -0.060638744386510935735 0.014442693931025422927 -0.003186077082028311927 -0.013336695787812102854 -0.00801863504576004818 0.01458585380593183968 0.0020846467792235631733 0.011835953978257778355 0.0048456389649787047838 0.015113873120383165133 0.0080186350457600585884 0.024075662927372905309 -0.04043638667912943796 0.018081755899780498076 0.0094105282768031459778 0.0069484428109376850449 0.0097827800087886915975 -0.087760271361990008221 -0.0039027439061686125532 0.02453698126838937954 -0.012051798192626488396 0.012051798192626488396 -0.0098039056584016091855 -0.019330670337236406653 0.031001037530882426946 -0.010523958950543170141 0.019616077492296882939 0.018415526371191336119 0.0036902964140967248197 0.0063407653372624921823 -0.0027065319309136758735 0.025192207608052928636 -0.00068077425570446203733 -0.0097906852877816703817 -0.02263675944264090939 -0.012614690534933995988 -0.091323972291444607818 0.029018143533870260214 0.0044294265619604419187 0.08082747955906124937 0.0060994264266181494674 -0.033953716448259722849 -0.023531549052420323853 0.0051472497496474313786 0.027573864165223775646 -0.010974507164542950111 -0.019283363437473603763 -0.054365131894889999475 0.001952545346487931854 -0.005899684001819156462 -0.0049900955692449983081 -0.00141872132704414693 0.00285349034506040709 -0.0027065319309136841135 -0.0081032974612646798546 -0.013140805483312548163 0.003774949350935128279 0.0024905482766681575485 -0.053716751693876491069 -0.0010178902706398900834 -0.016251613869159530629 -0.0039027439061686550539 0.0028144203397019768205 -0.0085062842135120719789 -0.031399585070462324166 0.031844884819842649015 -0.014291111175669977268 0.0028144203397019798563 -0.019283363437473631519 0.0034710389006520222209 0.01710879424382205985 0.0044256078142111670432 0.0040359598057935139326 0.0050773016810674934107 -0.011544501758677532671 0.030610786367366634581 -0.0031860770820283440194 -0.0019525453464879333719 0.0022366336161294586744 0.012476668556954706099 -0.0031860770820283440194 -0.0033547304029201449431 0.0061742838079770758983 0.0043158291710459865953 -0.0092583162770124710628 -0.0052602694124440985482 0.047479558571403075729 -0.02270015880063342914 -0.1893466619549935559 0.0015344174997628755568 -0.0023360679340256565624 0.012897565324617998872 0.0019525453464879351066 -0.0017815443314989395495 0.00434576303505600052 -0.0017410820970578506049 -0.056486376077966020393 -0.0016510920212096105112 0.047107015826391339386 0.04423398241383499907 -0.029782207841788643776 0.0040520303219042366413 0.067080364049275670313 0.058374486742438468079 0.056978170598256487611 0.017327189794893092106 0.017327189794893092106 0.01540992288016365501 0.015409922880163663683 -0.037039940002976258493 -0.081607922606882363215 0.0081875061469847548734 0.0033517435409414677444 0.0099348357776763637772 -0.015132759560309976335 0.012861616705386127307 0.0028770610185332007834 -0.0068331604073991122905 -0.0074655256898684902236 -0.04937888996331658148 -0.012449752492583412988 -0.024121294912272932265 0.027906775922728627864 0.023612941917230571148 -0.02405646546805090269 0.0047479353332362354834 0.004580501208167831774 0.01334735374161245651 0.002490548276668154079 0.06456665755024514064 -0.020775449625340239312 -0.0088638817027209774319 0.064992924829576206869 -0.008193012337666045683 -0.023531549052420306506 0.0017588497475716986015 -0.0062012256769552569213 -0.047228015382481558504 -0.0026459602050740646528 -0.011165518803265222711 0.019478557165337299917 -0.0098980950298708410273 -0.0069674835534289337666 0.040955142533759328338 0.024320910316317050082 -0.014132388062599343312 -0.014647108718489319085 0.026968490263645963911 0.0088311075892120484421 0.022005823671357047089 -0.030937231617913712317 0.013427112213216805051 -0.011569888007567905031 0.036539306527577683492 -0.0019327899113700875485 -0.0092476130400752018512 0.035452092222371223151 0.028390146178147890321 -0.021820240184600155769 0.006886872923128951364 0.070179909275817881076 0.051201113479865160982 0.007957447277980683048 0.0027203438988602705699 -0.035290275695527319189 0.0199158181925503594 -0.031339145986208599703 0.0071939881850142765873 0.0093327132063512514837 -0.0043893359834958865784 -0.0081032974612646746504 -0.0081032974612646746504 -0.02236864078963732988 -0.0094963060063030600016 0.0041974288045310533327 0.0074729383891155940628 0.00083984666929119906366 0.0045592302085574049064 -0.0077496632812034888307 -0.017755993357471126781 0.053310456656390677044 -0.058222318988925908512 -0.012544938360036620578 0.013064188231412940042 0.0099378989392095457706 0.0034747377971027790591 0.0077190790847613075659 0.00049958228604743643107 0.0043676179777251879915 0.0081302530559286007722 0.002814420339701981591;-0.074217125548749665609 0.015782408888652774137 -0.011692334504033502843 -0.003432962322727965785 -0.041025561997538470549 -0.082773890259693144733 0.02125138166225438302 -0.067807073697044029092 0.014339434650165881063 -0.022482032811732773764 -0.042874716768628681751 0.065965569062185314131 -0.0027122480866835214745 0.027405940003814275446 -0.0096574314848223794666 -0.008081586024067156232 0.020481914669132614271 -0.043514597175508325233 -0.0016659134422355133861 -0.033000085863323480595 -0.0011490574300966611802 0.0053161556164808181427 -0.05658665982832943725 -0.12932206880212737676 0.0068539001155043634619 0.0025046436471203976058 0.0035488360154946672724 -0.052720070493603811423 0.022186809360019398019 -0.00076562543102243034183 -0.0049216592239741474915 -0.052720070493603173045 -0.0027633767439708390411 -0.052720070493603138351 0.023741740124240240384 -0.00076562543102200045567 -0.014473050732873811441 0.0053254422162373861796 -0.00013021852962887656862 0.026509686002093905965 0.00047735080685263377989 -0.0066485585134578193897 -0.0055606427299514510354 0.012614231522339269115 -0.0040376035715426169051 0.055464047459094688308 -0.015087241860398831542 0.059833992902484943455 -0.0066945333233082169114 0.0024549933069653905385 -0.011192683760788002187 0.0042537042301763238264 -0.01371035766046023105 -0.0053481975376422673588 -0.038507839361544837775 -0.001508554272397294449 -0.002256995693886536692 0.022342936300400264432 -0.010126185720011837699 0.013241817813822290284 0.12197069504880510282 -0.0083920421007488647108 0.0032966919232577419907 0.0017940492919409955011 0.01132289427605969595 -0.018430218402880765155 0.036129430624186345544 -0.031195609803132240412 0.11753086944240727363 -0.0063411192243993958623 -0.031433900440687667643 -0.01119268376078801086 -0.075697382459013973222 -0.018002613316607206373 -0.022703566800799310221 -0.0012480727570112223977 0.0080933503519329177273 -0.015933018483162003642 9.5949048445448430417e-05 -0.031195609803132216126 -0.0023690944405211672615 -0.014195574567722463524 -0.0022808873239356514118 0.0051524248725490591136 -0.0045264898943422685051 0.0064106481154485939547 -0.0061151404245661875742 0.00094802595545076713286 0.0064106481154485870158 -0.023564614547176357395 0.017090551103473326094 -0.0019436785066283589554 0.00068750379273917530936 0.0058294673853249955042 0.074988028003266954391 -0.0047015277208889228247 0.0024549933069655037292 0.0089385959011472979757 -0.060095232424048829201 -0.032880827626553199572 0.013093859640708411032 0.0073821758208348240912 -0.010341751944783697179 -0.0074380889517115123671 0.0014313955753468092773 -0.00032783021046683312677 -0.0040376035715422621541 -0.030709210248054851639 -0.023764496961848475404 0.023225309858288328835 0.026442843639669096067 -0.011051066738265632669 -0.011051066738265630934 0.0066945333233081275731 0.0051524248725490556441 -0.018374267208734747919 -0.0036567589750180558468 0.0046288805495229871576 0.0082786237524562662771 0.086602697877440210084 0.011844648823163465498 0.059447852725943960139 -0.011844648823163566112 -0.058756308105595296543 0.025313554520799589481 0.064705882189881672173 -0.0040376035715422534805 0.026693137263496046624 0.011192683760788075045 -0.033118807847916355291 0.024821550905034992646 0.0045939302263565771206 0.020808270833752359058 0.015636089216292704818 -0.0027463198968075649455 -0.0026773021782029275684 -0.031502690001635559602 0.0019602347549256839664 0.024821550905035103668 -0.0040376035715422612868 0.011851926146490190245 0.025277673944175075432 -0.072986435539223140645 0.028571412154357305607 -0.0078243809982797909996 0.04724919620829390321 0.019063900197418767041 0.015914772849571927338 -0.015914772849572138974 0.0027463198968075658128 -0.013776511927620919279 0.0021802455923245374347 -0.027946617650932901317 0.0079681460772352552535 0.020235766177553900919 -0.056861191377768134647 0.0011381153776084088243 -0.0046599174501082436112 0.00057127616949120699555 0.017402738928621444559 0.0061887109445268448024 -0.0020160015166804166713 -0.020302726451125140822 -0.010126185720011960864 -0.038084332930661608796 0.023061896154877227494 0.015397973754481125708 -0.017913344698480812567 -0.070795088754690344013 0.028375487122467152323 0.0041083723024505428012 -0.021690976016340880739 -0.0092036083560803928771 0.022732603667682621529 0.007637941680381734981 -0.0096316853330860353888 -0.022961611980068120237 -0.0081221004770669485984 0.016380746031193514634 0.0064059669693808975188 0.00318129901586702412 0.0049007129204924945037 -0.00018731938957217256258 0.0081221004770669642109 0.011723586154264442616 -0.027657624159512787104 0.022624030160622712882 -0.0026121196372759828384 -0.00032783021046689026423 0.014729508501150552144 -0.091206619656924614592 0.0049424641477241607404 0.016395531830434628695 -0.015065354470455460598 0.015065354470455457128 0.00094023711938126617454 -0.010971329256492100279 0.031755276589983304214 -0.023974721568615631195 0.017167249339646608458 0.040608741454954938588 -0.025100609776334912443 0.0017940492919410275935 0.0024549933069654009468 0.023502418272965015789 -0.010126185720011979946 -0.015478151467964757979 0.064021640217376940551 0.021356882631787699189 0.073341137106273809887 -0.0039182882670865974359 -0.0040376035715422647562 -0.048089121956291495941 -0.02482040940367503945 -0.012451100863567208729 0.028571412154357381935 0.0046288805495230305256 0.021699948669647882438 -0.0079761807181757786445 -0.015607970413804451298 -0.095023826003518718775 0.0025046436471205112302 -0.015796671136095116056 -0.016631365614569806888 0.0040893195952755086869 -0.010064186535062233374 0.0024549933069653983447 0.0077108727317366640083 0.062871802735886453406 0.0064106481154485618623 0.0051524248725490348275 -0.031195609803132202248 -0.0045264898943422962607 -0.051205139327934516558 0.0049424641477243428864 -0.0022569956938867331495 -0.014219928225066232746 -0.0071288928269975064544 0.0029467818633244790595 -0.021824752566871438025 -0.0022569956938867348842 -0.015607970413804321194 -0.0074559301043563902187 0.031484291407236221494 0.0024567198333085727563 0.0018194474742882391863 0.002865063338187664229 -0.0077257474861105691552 -0.065601682441119676947 -0.0096316853330860423277 -0.0025046436471202037505 -0.0075542439836720166532 0.0062925166794837216269 -0.009631685333086040593 -0.0021554346452521628077 0.0037598931435850958989 -0.00079779649554223260391 -0.0099600006833666463596 -0.015023918646272969857 0.0065017908083056658031 -0.011567604926736332199 -0.023307319343781898735 0.0021380546294973456524 -0.005597166632886250992 0.00042771036363607197427 0.0025046436471201998474 -0.0058531463435282241395 0.0043199407921514706987 -0.0018798775549851362565 -0.056256368390981185967 -0.0015456536250437391197 0.073981074607560273759 -0.0067931051425315792242 -0.049776383787537695214 -0.0011358548819221786757 0.057829560922939962642 -0.015889970117898971624 -0.029509815318089233777 0.00053021507955912318324 0.0005302150795591224243 0.0050620131940576984855 0.0050620131940577036897 0.014591476899471813797 0.084147642451675191966 0.00047735080685238408813 -0.012843292193116874131 -0.0061618531227412513124 0.0048759887253684644493 -0.0058965992993031705535 0.013007580532769054057 -0.0047179774696289337663 -0.02209486804468652546 -0.0032498542469635493743 -0.0070192694391922518665 0.04044230259109389547 -0.046491645999131012146 -0.041786124812332112177 0.036528709953262308852 0.0058023347010209783831 -0.0040137353415932207693 0.0095192472469212922187 0.0051524248725490356948 -0.047409091737847006143 -0.022654420623314373839 -0.0095075370980503299406 -0.038507839361544858592 -0.00094996398212833998379 0.028571412154357392343 0.048862801030622682319 0.0050824482681067952722 0.062502945269462845124 -0.0042366895758719934004 -0.025299594966919324024 -0.022955337464038515216 -0.00013638438455902473449 -0.0065443307028984695761 -0.082771994969109960461 -0.022249257480746197774 0.038436798414339112817 -0.026408237966704210808 0.051103663068296931171 0.066618454874946997357 0.066049762697834385472 -0.014454562791904018715 0.026768594799048885807 -0.027145831721000615588 0.00024836159081369235148 0.0053391707615454524205 -0.039025617513603609587 -0.060896015913874022851 0.010461710097910475667 -0.0068684054736435698474 -0.0047699366049705847065 0.0058529899511195792108 -0.011847030081064358065 0.00056731480942706744193 -0.0023133485064555352889 -0.00090779204747751815821 -0.017624465765306525367 0.019063900197418805205 0.054170491799474508599 -0.0090262391068040535858 0.018955498588658928338 0.0077108727317366683451 0.0077108727317366666104 0.00085675977029329281574 -0.019398791869817331307 0.019704705468872870527 0.0010792418646196524478 0.0053741014438302521158 0.012030156774494328228 -0.0075820191603225674595 -0.029391899203083785008 -0.041462492200422230992 0.072118919429075639682 -0.0065122615850893156297 -0.0081810452024364752055 -0.0010881771022190158717 -0.0086316170640265716535 -0.0062986708842560383201 -0.0096574314848224176305 -0.036764252076091928634 -0.0002916875646628843766 -0.0022569956938867340168;-0.0053638068478306369022 -0.00076137157589710349574 0.00066510765392789475761 0.0011362480169778549615 -0.0033788317004052183072 -0.008204919148569533166 5.6141157071875285147e-05 0.00012478712077352920821 -0.0016836479231043812669 -0.0027442458107002493106 -0.0029314502256707836506 0.0030055180808529710114 -0.00058681520334569626379 0.00163316875051467531 -0.00072662562879648932672 -0.0014650274418899992407 -0.0014959832244200877566 0.0024026201976896669962 0.00028785545639831768569 -0.0024270195822874061041 0.00085250793972169126508 0.00069957889639567195309 -0.0015150430244853473321 -0.0049192479453182948526 0.0011230869660298749366 0.00060876880865650328731 0.00054367888919663843409 0.0023688801327519581549 0.0027785222935187360756 0.00095067269967946687898 0.00075926864203363893593 0.0023688801327519603233 0.00011595812630235529663 0.0023688801327519637928 -0.0027192766985798008487 0.00095067269967946655372 -0.0012391642469307014279 0.0013223452223379275269 0.00029640704429439762753 0.00070065132129487877471 0.00012444186292239687837 0.0063419213354767725935 0.0086197374570552449252 -0.0025563809272700433253 -0.00042662568342854761613 0.0013668547460888485004 0.00035888469195872113116 0.0037236256182481184372 -0.00070348527878294757777 8.4281299743159832777e-05 -0.00092770404589841322374 0.0006522182838491633397 0.0019703652144713265128 0.00012633224143274908728 -0.0012027861547257837939 0.00058845717864809536125 0.00010539822885606883035 0.0011892293137546771677 -0.00028854744414610888903 0.0009296779291926159268 -0.0039098466435673970981 -0.00061804231322002138767 0.00042629956964011545169 0.0003711338585448661128 0.0035821937095940697103 -0.0014617352929035540895 0.00092127547755823085279 0.00067360087492295895369 0.00028764062503296508599 -0.00047998439006971082947 0.0037665977058111092118 -0.00092770404589840097225 0.00034569083584157298938 -0.0011463191438046142941 0.0023537956237549588143 -0.00033713715858676399518 -0.0053512404199753524012 0.0033067268236948448197 -0.0004675365118134423262 0.00067360087492295559267 0.00033580163283635113122 -0.00048963559713317210235 0.00015607611170783422744 0.00068001589864012407932 -0.00031519561038789983137 0.00081339800497382929844 0.0010482136696565286758 0.00046890984100008477765 0.0008133980049738290816 -0.0018235918305536784074 -0.0022019231648606509 -4.2925649512760991674e-05 0.00095542824564584234552 0.00078984865719440057463 -0.0041007596766943028507 0.00086671241620433451137 8.4281299743150508638e-05 -0.00065094882001349909512 -0.0017191391016192587513 -0.0013293640729107418768 4.9958755375017979705e-05 0.00068994137513285177035 -0.0014860651439455756836 -0.00067601180018745537538 -5.0731181396833967896e-05 0.00047292233512711499268 -0.00042662568342853845462 0.00023236680113342507914 -0.0015895121438782417421 -0.00020160004488574439401 -0.0010387299291146616809 0.0020106042049397223476 0.002010604204939724516 0.00070348527878294367464 0.0006800158986401250551 -0.0012704253006387952653 -0.00078332426235993462323 0.00029501185559183481935 0.00099332715223702052788 -0.0028133999093950109657 